the -2.637670 -1.585645 -1.873011 -1.148953 1.307935 -0.096461 3.311192 1.742638 1.876836 -0.475035 -0.604041 1.368372 -1.735736 -1.016029 3.722622 -2.006676 -2.693491 -1.963754 -0.749800 -5.806929 0.565346 0.672391 -0.996080 -7.225649 1.551950 1.610893 -0.211999 5.046815 0.535867 -0.683267 -3.536274 2.282420 1.035992 0.477997 -2.009354 3.041221 -2.249934 2.737891 2.666368 2.106480 0.038079 -2.360851 0.836986 -0.260362 -2.516811 1.767654 -0.798291 -1.086027 -1.701494 -0.576944 0.554013 1.179077 2.224873 0.787185 -0.214743 2.325697 4.333541 -1.091553 -1.284581 4.517259 -0.894608 2.368530 -3.473466 -1.388723 -1.597532 3.913679 0.013088 -1.377498 -0.699444 -1.288056 0.144056 -0.772130 2.989194 2.274839 0.825035 4.393749 1.590490 -2.881944 3.084129 2.584722 -3.626669 -4.968845 -2.831719 1.615366 -0.579486 1.734007 -1.295261 2.692392 3.728923 -0.858523 -1.513600 -0.073067 1.508575 0.120315 -1.975092 0.196967 2.026782 3.891751 -2.788408 1.975907 -1.609073 -1.060350 1.081309 -0.579307 0.385863 -2.172003 -1.440839 -1.942370 2.052886 -4.426776 0.539110 -4.150057 -0.757542 0.244117 -0.522802 4.669101 0.765973 -1.362368 2.422498 -3.409818 -0.044716 0.283563 2.998729 -1.168752 -2.277675 -1.811575 -2.473416 0.126000 1.337467 2.099972 1.287388 -2.891563 -1.620580 -4.133526 0.401991 -4.690089 -0.663027 3.983038 1.613816 -0.778649 -2.786361 1.569973 -2.518789 -1.098753 1.614287 -3.787802 -1.851545 3.209968 0.819027 -0.674858 2.242338 -0.923502 2.785092 0.357322 -1.507104 0.717330 0.125872 6.025054 -2.241665 -3.097065 0.188906 -1.238148 -6.588396 0.434130 3.085220 0.631670 -1.628844 -0.006865 2.157923 -1.662830 -0.612948 -7.901152 -4.053082 0.445400 1.727260 3.395305 -1.484346 1.614955 -2.277665 1.470841 2.634099 -0.585623 -3.188664 -2.613173 1.347293 -1.131385 -1.403262 -5.626651 0.517204 0.431298 0.654510 4.945588 1.131177 -1.805044 1.383865 4.069895 -1.489200 -0.520612 -1.005208 1.409901 0.274047 -2.481752 -3.110281 2.708821 0.917078 2.346999 -0.093907 1.535535 -1.884823 3.061443 -0.946110 -0.911603 -1.118332 3.665123 1.427522 -1.280360 4.508320 5.271848 -2.086749 5.237252 -5.657595 3.236402 2.023407 2.119598 0.251116 1.481434 0.297753 -0.479646 -0.618015 1.575999 5.756759 -0.352254 -1.735253 0.153680 -2.078496 1.500486 -0.277306 -1.136563 2.688312 1.101492 1.073131 0.856987 1.519267 5.973778 -0.654765 -1.143261 1.234123 0.551615 5.072321 -0.219322 1.429642 1.789898 1.283941 -1.491067 -2.099846 3.572632 2.156363 -3.199485 0.244033 1.413931 -4.577202 -1.037348 0.868257 0.086630 -1.307734 -0.279170 0.080451 0.129052 2.459955 2.079305 -1.061860 0.822340 4.853670 3.062702 4.490407 -1.019616 -0.507407 -0.771614 -1.226342 0.649251 2.136616 -4.438411 0.481265 -1.256133 -0.168893 6.552110 3.594355 0.249379 1.810186 -1.876683 1.478836 -1.757451 -1.011394 -0.340977 5.463439 0.285694 -4.055949 0.712325 -2.819479 -1.517002 
and 0.641964 0.891607 -3.657788 -1.625353 1.321018 -1.155279 0.122841 -0.191417 1.125991 2.467728 -3.337587 0.959537 -1.039765 -0.935805 -1.617409 2.333677 0.132918 -1.688000 0.016947 -3.464015 -2.297174 -0.570992 -1.023172 0.789309 1.597956 -1.133485 3.268035 4.001507 0.989508 -0.198724 0.750319 0.278090 1.443911 0.257004 -1.548779 1.607622 2.015304 -2.145624 0.258433 0.897465 -2.207676 2.361237 -1.900920 -0.687333 -4.639756 3.345093 -1.435960 1.203244 -3.715654 0.363402 -0.045905 -2.132971 -1.745479 -1.733262 4.251251 -2.049471 3.195286 2.065310 -4.045233 0.544579 2.252088 -0.875413 -0.747905 0.198514 -2.314357 -1.605037 2.983451 -0.065317 -1.041906 -2.959362 -0.029467 3.759543 -0.383515 -0.756300 -0.144298 1.259434 -2.076530 -0.533360 -2.986581 -0.302779 1.058257 -0.405694 -0.756374 -0.697080 1.634020 1.167064 -2.273101 1.705236 1.197787 1.249146 0.059541 0.987837 -2.532753 0.241282 0.796329 1.328990 3.178311 2.887387 1.450182 2.919497 0.106513 -0.513665 1.435466 -4.575115 3.598526 -0.165262 -2.069518 3.945350 1.459674 1.341252 1.666983 2.163829 -0.857234 -5.043587 -1.583716 1.901057 -1.247011 2.868326 2.928437 -1.556816 -0.342894 -2.043831 -0.429919 3.869559 -2.752239 1.334681 0.621180 0.503797 -1.584654 -0.803596 -0.560063 5.160413 2.541736 1.341000 -2.777794 0.879621 0.241542 0.288951 4.831288 -2.905662 -0.938932 -1.756301 -1.042555 -0.496055 1.178841 -0.529747 1.750432 -0.105627 -0.585380 0.944271 -1.657275 0.543531 -0.182988 2.987806 -1.429325 -1.292379 -1.230931 -1.502846 -3.018739 1.109114 -0.571679 2.185476 -1.939858 -3.226317 -3.566679 -2.694108 0.604202 -1.635044 3.331093 0.811192 3.680921 -2.768972 -4.701099 0.602659 -4.037516 -0.830800 -1.277153 -1.834859 -0.059297 -3.618673 1.144545 0.674271 0.474037 -5.415461 1.145897 3.948956 -2.643673 -2.080245 -3.870393 0.271885 2.700686 5.447421 4.015898 4.570367 0.084234 1.965722 0.473316 -0.937642 3.477348 -3.500884 1.871009 2.710609 -1.365779 2.617121 -1.468126 0.971631 -1.519435 -1.609707 -5.674641 -3.468775 -3.044272 0.702380 -3.281499 -3.338178 5.342041 -1.427646 -1.732991 0.450671 -0.300812 0.166816 -0.656167 6.069612 3.616505 2.063541 -1.443283 -1.276044 2.636599 -0.407377 3.898680 1.161549 1.142392 0.364091 -2.911663 0.565239 -0.022747 0.161220 -3.612907 -1.545222 0.538909 0.451094 -0.684151 -1.494668 2.815498 -1.009619 3.836788 -1.373981 2.959967 -1.840344 1.226853 0.023280 -0.950012 2.112224 2.268487 3.314197 -0.038127 0.264033 0.971385 -2.782005 1.295431 -0.961573 0.436417 -2.963602 -1.496736 -0.552509 0.188390 -1.707209 -0.921923 0.708374 -3.061718 5.232929 0.438294 0.321211 3.032565 -2.360160 1.145864 -2.422267 2.140794 1.714144 -4.587795 -1.520420 1.766148 -2.128188 0.174022 0.572394 0.460854 2.135004 1.234707 0.777113 3.992354 -2.444693 2.393156 -0.710173 2.016336 -0.201755 0.311377 1.299308 -0.646753 -3.918085 -1.879444 1.675593 
in 1.080820 -2.563416 3.568489 -0.833753 4.193326 -1.770573 3.094654 0.223487 0.011203 -3.211562 -5.327442 -1.764620 2.349548 0.060482 -3.234284 -0.908294 -0.620535 -0.904307 0.268086 -1.519465 -1.552154 -1.318591 -0.460050 0.403957 1.843811 -1.404551 -1.762772 -1.399399 3.459065 5.947936 5.063571 -0.265097 0.134812 1.377565 -0.693164 0.257569 -5.574433 -0.228036 6.131136 -2.733573 1.297827 0.023598 0.526095 1.864966 -4.499012 6.538148 -2.915235 0.230639 -1.570059 1.947539 -2.012721 3.534052 -2.062830 0.187273 2.714672 1.609028 1.567550 0.207793 -2.302841 -2.440769 4.333623 -1.395596 -1.781797 -2.474751 -0.205184 -0.729933 -0.964879 1.911923 0.425147 0.260826 1.097302 -2.551782 -0.472883 -0.217919 -2.383438 2.511183 -1.023362 2.179364 -7.495424 -2.936034 1.404186 -0.055465 0.999098 -1.447531 -0.877378 5.047938 -0.709810 -1.483009 7.982378 -0.152509 -1.700477 -1.618178 -3.451489 -0.989332 0.547413 3.652874 -4.249295 4.558990 -2.150563 4.247714 0.981605 -0.041407 2.715672 -3.686661 -0.241416 -0.762870 1.887435 -4.457405 4.228240 -0.098140 0.510038 0.177172 -3.613599 -1.752260 -1.173448 4.041873 -2.488919 0.173727 0.475020 -4.439690 -3.406013 0.250685 2.409558 -0.280258 -6.369605 2.989237 -0.426681 -2.157640 -0.231893 -2.291125 0.274379 0.948438 2.654458 -0.557492 2.273660 4.725045 -1.723729 -1.365478 2.330926 3.799106 3.521685 1.290014 1.374176 -4.554860 -0.163884 -0.234652 -8.273776 -1.993044 0.035201 1.264578 -0.014155 -2.746638 -4.258071 2.268173 1.884069 1.553309 -0.840549 -0.974571 1.583920 0.056504 3.048432 -0.363807 4.112120 2.499749 -3.393455 0.079146 1.053424 -2.312379 -0.086710 -1.826745 3.716983 0.510117 -4.318241 -1.584995 -3.818842 -0.457671 1.192027 -1.912214 -0.647643 1.872896 7.173671 -1.217207 -0.134006 -2.112999 -3.301868 6.087171 -2.769993 -2.575151 -2.746105 -2.855647 -3.719146 2.486594 3.498675 -3.146467 0.937757 -3.340654 2.572828 5.584110 -1.521186 0.029450 0.146068 -4.741922 3.940719 1.452372 4.309438 -2.923394 -0.829323 -0.350906 -2.137282 -0.637749 -3.353178 -0.960594 -3.739489 -5.047482 5.095017 -3.252219 0.880516 -0.103330 -5.205256 -5.479282 0.982812 1.421911 -5.411764 5.395109 -0.432237 -2.145697 0.096008 2.445967 2.933439 0.183030 0.792275 -0.917070 -4.295909 3.749013 8.387276 -0.335316 2.873186 -2.411539 0.615554 -0.657584 -3.247932 -2.350677 4.657953 1.862965 -0.933675 1.304656 1.163930 1.309602 3.333470 -0.379836 1.656204 1.450102 -1.815236 6.002877 2.030344 -0.043357 -3.363883 -2.740609 -2.686525 -2.375285 -2.090846 -4.039329 -4.927475 0.036289 -5.075902 -1.948751 -2.590282 -0.449587 0.536119 -0.048484 0.212584 -3.007683 0.628338 -1.719525 3.514986 -6.842484 2.228918 0.998682 0.001674 3.084876 2.033891 -0.351783 -1.273205 6.093978 -1.168467 1.154143 1.633190 -2.614241 -0.544705 -1.326380 -1.027879 4.328990 5.469008 -2.682524 0.270736 2.298493 0.635117 -3.045048 -2.345574 2.146909 
to -1.472651 -1.964525 -3.809574 -3.760927 5.589890 0.961390 -0.109256 -0.715155 0.572104 0.286903 4.317213 6.411485 -0.244066 1.827291 -2.718191 3.664723 1.342763 -5.190595 -2.556330 -5.195590 -2.931864 -7.899186 2.307641 -1.613856 1.069754 5.260182 -2.316097 -7.729560 5.018545 -0.078697 2.329587 -4.078449 -5.459230 -0.173457 3.896414 -4.602174 -5.861543 -1.700802 -6.522924 4.627990 5.222016 -3.041747 -1.467327 1.160007 -1.414955 5.486224 5.702662 -2.672801 -3.149642 -3.063792 1.544371 5.756251 -2.686120 1.749875 -0.574425 -2.543775 -0.834322 -0.503458 -4.412235 -6.846512 2.606737 1.273606 -6.851191 0.922850 1.460236 -1.986665 2.985984 0.098749 -0.330894 6.897287 2.984637 5.085573 1.178293 -2.703537 -2.027338 1.077196 -1.961304 -4.610188 -11.459418 -3.487824 -1.650197 -4.547944 -1.994274 5.017071 2.062205 -7.503312 -3.148889 2.287354 1.302210 -1.034216 3.779576 -4.235889 -1.297996 1.360530 6.935473 2.040919 -1.780342 -5.190007 -2.264714 0.003536 -0.656443 -6.220370 2.739226 -3.054160 1.227607 1.274573 1.791183 -2.865579 -3.300786 -1.533414 0.247297 2.202850 -0.700059 -5.010422 3.721574 2.440726 -1.306200 -2.777097 0.616203 1.727246 4.358002 6.724236 3.038327 -8.973858 3.342022 0.210037 -10.834968 -3.757934 -0.251735 -3.984777 7.748718 4.739573 4.688101 1.701500 0.906598 0.396606 5.842740 -1.490191 0.586316 -0.214059 5.046116 -6.724906 0.362894 2.874723 -6.931166 -0.584126 -2.247611 -3.933876 3.007290 5.274795 -1.183446 -0.003135 0.626527 4.535732 -4.993636 2.288542 0.647023 0.583596 0.548854 4.096248 -4.901577 -5.584481 0.737199 2.337280 -7.973267 0.683863 0.919350 -3.702340 2.682948 1.484135 -5.109455 -0.202658 -0.555910 -3.554497 -1.457552 -5.045687 -0.407723 2.625856 0.261750 -1.746807 -1.827327 -5.956179 -2.512506 -5.304754 2.522434 -1.773865 -0.840122 -0.509556 0.142263 -11.528975 -3.117479 2.257635 4.399730 6.316012 8.046714 4.437274 0.117779 -3.201969 3.022146 0.950943 -2.726105 1.483997 -1.936872 -0.989837 6.175649 1.800137 1.306861 -5.372050 -3.880445 -2.179892 2.538805 6.613749 -2.280313 -6.858320 2.557734 -3.812058 2.143405 2.419448 1.376289 -1.089017 4.839424 6.691558 5.072520 -1.637377 -5.273932 4.386207 -1.905974 -7.888062 -2.358083 1.648265 1.782447 -3.138793 -2.196969 0.132451 -3.752526 -0.671129 2.998838 -4.796756 4.228691 -1.100710 9.526688 1.318053 2.837721 5.106468 4.074856 -1.885652 -0.528994 -0.516802 3.268260 -2.061740 -3.767201 3.832755 3.149722 -3.077769 3.598768 5.887598 4.319197 -6.224744 1.959790 -1.413059 1.291725 0.588501 -1.603644 -0.443490 6.332428 6.481126 4.750058 3.118744 -1.751691 0.937208 -5.892318 4.321533 1.943621 -1.223248 7.916430 1.789020 2.509771 2.031894 -3.052782 3.006001 5.915059 -3.790517 -2.272623 -5.859708 -3.182749 7.031653 0.356177 6.955013 6.244345 -1.764413 3.782818 -0.452059 3.158108 -3.330141 5.598962 0.898790 0.544320 -6.204926 -0.576040 3.462291 
a -4.067456 -4.523876 4.565266 4.672848 0.178324 2.877964 -1.315018 3.749536 1.296123 0.756830 1.269041 1.837846 -0.163927 -0.083220 2.016523 -4.542406 -1.140844 -2.523222 -1.065401 -6.223312 0.120636 -0.352209 -0.237236 -4.158316 1.089942 -1.129790 -1.322925 -1.189853 1.583449 -1.173149 2.568184 4.169039 0.363419 0.577062 -0.234013 2.863901 2.674466 1.858387 0.674703 -1.501055 4.978567 -5.600199 4.680403 0.272597 -0.088285 5.267190 1.366562 -2.063205 -0.910956 1.663821 1.121558 0.375282 -0.146035 -4.807845 4.516906 -1.018961 3.445260 -3.125902 2.622348 5.146335 -3.087713 1.942196 -0.063670 1.051787 1.602230 -0.887581 -3.979873 4.433643 -5.009151 0.015601 -2.112781 -0.469307 3.064213 3.055904 0.571847 2.869702 2.087592 0.603190 2.495843 -2.829548 -1.459095 0.607601 -4.840635 -0.361230 2.233641 0.814658 0.729275 4.419638 3.149763 -1.100912 -1.192630 -0.651145 -0.617457 -0.304512 -4.838201 -2.080647 3.414594 2.972173 -4.029333 3.148937 2.151119 -3.810854 -3.267078 2.273262 0.344154 -6.997416 -2.066400 3.539150 3.087881 0.380059 -4.687315 -2.733408 3.734021 4.832763 -1.007456 5.063983 5.941247 -4.770958 4.644823 -3.389799 -0.904865 -4.640942 8.990371 2.031229 -3.532809 -2.067878 2.260772 1.649098 1.062942 2.551353 4.432054 -1.715447 1.203216 -5.752970 3.499039 -3.011034 1.239029 -0.716245 -0.853229 -3.633362 3.302001 -1.484609 -2.927226 0.710370 -1.547784 -6.364218 -2.007700 1.526695 0.472156 -2.196422 4.060088 -5.666375 -1.068686 1.280826 1.542507 -2.490819 -2.037619 4.111491 1.658037 -3.848552 -3.309041 -0.623642 -2.724714 -4.450998 3.158380 -1.815770 -5.664555 -0.033274 4.960116 1.137517 -1.733379 -4.673658 -0.795956 0.820567 3.068671 1.261862 -4.034982 -0.743122 -1.327984 -2.940549 -1.479180 -0.379276 0.169306 1.757105 -0.162480 -1.563674 -6.588848 -6.290174 -4.322577 0.489566 -2.724009 5.092225 -2.362476 -3.976197 -1.561155 6.077797 0.969965 1.989019 0.788512 2.728382 0.093762 1.780257 -0.346559 -0.192407 -0.521506 -1.660800 4.423652 -1.785910 -1.473882 0.499338 -1.419603 -2.191355 -2.931770 5.526666 -5.671343 3.982912 4.787889 -0.931536 5.869189 3.162269 -0.756835 -3.707968 -0.532616 0.932545 -1.703201 -0.420900 -2.525894 3.422797 -1.363068 -1.573250 7.730330 2.027783 0.424546 1.824017 -2.721376 3.839927 6.602330 -2.790180 -4.529067 -3.422216 3.876832 -1.518731 -6.536493 2.601158 -1.849571 1.018277 -1.713127 2.202810 -1.736762 -0.548704 3.278141 4.467558 -1.480616 0.169831 -7.543029 7.026664 0.306295 -1.593260 -3.646579 3.693519 -3.127575 1.420744 4.074517 -0.313550 -0.000942 0.420936 2.269204 3.199491 -3.174778 1.151309 -0.911827 4.293486 -1.238698 -1.548761 -0.196748 2.029472 -3.582515 -2.686960 -3.942512 3.352253 3.464541 -4.100258 -1.162017 -1.705820 -1.878014 1.393013 5.109319 1.285771 -1.962822 0.059382 -2.909388 4.163517 0.967282 -0.192595 6.881003 1.961617 1.983667 3.497832 1.583112 4.249018 
in_the -8.842393 -2.427381 1.633525 2.660898 -0.243852 -2.819789 2.887253 6.336366 -1.945527 -0.628179 -0.077071 0.972129 -1.545181 5.930552 0.562509 -0.082144 -0.798785 -0.432213 0.956078 -5.949804 3.102889 2.986080 -4.148716 -2.503623 0.571371 -0.962856 -3.577819 1.840438 2.221568 -1.020570 0.169314 -0.386575 -2.025782 1.046501 -0.409937 3.052346 -4.678003 -2.303785 10.744749 -1.040001 0.381215 -3.040597 2.007607 -1.022598 -3.758200 5.575592 -1.481512 2.720105 -3.969577 -2.685269 -2.023951 4.799137 4.323750 2.888548 -5.057022 1.361452 -0.993839 2.616371 -4.808228 3.521185 7.357478 -0.331676 -0.242793 -0.407741 -2.991055 -1.063028 -1.528962 1.831048 7.310357 -3.181637 0.022634 -2.047673 -2.940603 3.627930 -2.786931 0.955076 1.639242 -2.815872 1.145982 1.256864 2.491974 -2.144898 2.578507 3.735030 -5.208783 3.998585 -0.709952 -0.752819 0.786009 3.073739 -7.250128 0.560747 0.035965 4.479321 -2.193060 -1.032187 -0.950540 8.846105 2.289414 1.410641 2.372921 -1.259742 4.331894 0.873749 -1.110204 -4.147674 3.423133 -4.663481 3.453821 -1.443750 -2.686081 -0.716294 -4.367970 -0.393361 -2.012560 4.515882 3.336929 -1.044388 -0.570167 0.274031 -5.827461 2.884640 -2.297820 0.772817 -6.397411 1.088937 -1.616250 -3.280344 -4.148844 0.467505 1.328136 1.808317 0.316357 -1.255537 6.969061 -0.764152 -4.581450 3.032896 4.120612 5.017215 -0.807098 -0.003709 -3.040655 0.112357 -7.482024 0.941172 -7.988926 -1.849931 0.626205 -0.519869 0.270636 0.050650 0.121224 0.230551 3.382994 1.806992 -1.432215 1.067716 2.248466 -5.589413 -4.218585 1.717064 0.318998 2.734743 0.877561 1.606693 1.179597 -5.335740 0.281085 -3.073971 3.313996 -10.462734 -1.437042 -2.131716 -0.035368 3.550642 2.724015 -0.613015 0.994694 -0.005790 6.550332 -8.973398 -0.491134 -1.885018 1.098344 1.974250 -0.218839 -3.330049 -2.125686 -5.827474 -2.101364 3.667497 8.031754 -3.467840 -1.958268 -4.248514 -1.976472 0.956682 1.374762 6.259110 -4.665217 -5.240900 3.815843 -4.334315 3.083102 -2.895894 -1.546974 2.514120 -5.072183 -0.044165 -1.952334 -1.457407 -4.626878 0.479811 6.553837 -2.165399 6.814231 4.131861 0.930124 -0.083308 -8.065508 2.804677 -5.411298 -1.118697 -0.404671 0.612084 1.587725 4.947112 0.347786 0.230768 0.512866 3.242097 5.972581 2.332129 0.663556 -0.338656 1.575948 -1.745856 0.657285 -3.570880 -2.059058 1.045024 2.757073 2.959307 0.830471 3.375018 0.431970 4.572741 11.568521 2.357203 7.819038 -3.008847 1.033624 2.014959 -4.494416 -0.061222 -1.271405 1.563072 -3.177957 4.125889 -1.268345 -3.380908 2.661591 -1.912800 -7.686199 -5.274242 -3.268256 -1.218649 0.576522 -0.320314 5.130716 0.873330 4.636048 3.966464 2.009826 -7.534961 2.967546 2.774402 -3.267326 -0.206337 2.427979 -3.555990 -1.536408 4.672884 -2.427278 0.886817 2.770305 0.724277 -0.893639 2.203156 -1.900044 -1.211100 3.321086 1.369144 -0.233852 -2.273909 -4.676169 3.552498 2.962178 1.868795 
for -5.630025 -0.066248 0.469909 -3.080009 -0.535248 -2.009229 -1.232672 -5.960034 -1.608714 -0.250127 0.324897 5.865551 0.539755 4.900538 -4.201300 2.243835 3.501784 -1.898790 6.598700 -6.406902 -2.732776 -1.264912 1.668524 1.125280 2.839030 3.729705 5.021080 -2.357533 5.848182 -0.505952 3.341811 1.510123 -0.402394 0.569169 4.420625 -1.702697 0.879430 0.082755 -1.449802 3.757511 -4.862257 -0.252990 0.149290 -5.806017 -4.085955 1.975788 0.936418 -3.639541 2.878789 -0.870779 1.312253 0.015361 -4.701205 0.731819 4.200234 -3.775809 2.038153 0.603500 -3.361366 -4.458202 1.710778 -0.142988 2.384136 1.307876 -0.166466 -2.020788 -1.572008 0.387498 5.102561 3.507194 2.328533 -0.886936 -1.420584 -3.040999 -3.596944 3.704557 0.565626 -4.107440 -1.623400 2.349011 -0.462554 -1.131745 3.343055 0.904610 2.188215 0.057546 -0.539465 8.859715 3.543765 -0.466194 7.265151 -1.191670 1.138292 -2.719707 -0.765196 5.433249 -6.695450 1.218672 0.095976 -1.417057 4.359368 1.690796 1.859509 2.771656 2.324102 -9.272868 0.280923 -7.377899 3.368928 0.839802 0.312490 -0.569457 3.315578 -2.387053 -1.088336 -3.261974 2.658905 1.284027 -1.759762 -7.652441 1.508165 -0.290418 0.916764 -6.784204 -7.078134 0.673465 1.051355 1.564293 1.080143 3.038968 -6.709829 -0.619317 6.664999 -0.867607 2.562232 2.626820 -1.653759 -1.342066 -3.146297 -0.362519 1.282697 -1.438057 -0.960091 -3.171942 6.091370 1.752883 0.094424 1.150530 0.553762 3.807853 0.042037 4.095996 1.963165 5.721632 -0.802920 -0.788330 3.674393 -7.164843 -5.205065 4.749356 -1.877671 1.125909 2.776112 0.576774 -2.374447 1.841367 5.804873 2.806098 -2.754988 -0.037667 3.185958 -0.836057 -7.393619 -1.406785 -1.139836 -3.349964 -2.719201 0.420237 -0.222133 -1.746795 -0.071012 -3.569744 -0.012147 1.805061 -5.185749 -0.054552 -1.120175 -7.967009 -1.562916 1.755666 0.372985 0.161301 1.955585 4.988841 4.549897 4.448246 3.088188 0.254932 2.033621 -1.472265 0.872331 -2.581671 4.130403 -5.615261 -5.764132 -0.071563 1.930804 -2.971359 -2.780814 -2.047420 -0.682924 -6.644184 0.127792 3.116605 6.245316 0.543564 -2.054992 3.281749 -5.714118 0.207783 0.914687 2.039767 0.874959 -2.993436 -1.871607 -0.849746 1.580988 -1.595741 1.853353 0.228915 -6.238489 -1.004353 -3.344230 3.113416 0.421413 4.019177 -0.929835 -4.751906 -1.247965 2.702374 -1.106193 -2.368784 4.567266 3.563627 4.713181 -0.595251 -1.756497 -6.137985 1.520668 1.381407 0.733083 5.968946 0.819690 2.341652 -1.180925 1.039451 -2.528880 -2.353337 5.203741 0.024908 1.002574 2.909277 -3.814530 -0.214711 -3.344558 1.376607 7.120958 -2.367315 -2.477243 1.723095 5.277055 3.000625 1.921560 1.497173 -5.462445 -2.049395 4.103072 4.032626 3.199902 5.485528 -0.724443 2.436845 -1.082989 4.942401 -0.439995 -1.202477 7.507840 0.698860 1.579409 -1.234067 -4.642281 -0.584177 4.083699 -1.842951 -0.627474 4.574030 4.936577 -1.361325 -4.674293 3.333431 
was 0.321463 3.350130 6.658433 1.291240 -3.269866 3.194964 5.640849 1.807262 3.623372 -1.289642 0.714908 7.563703 -1.200496 -0.466921 -3.280767 -2.360107 5.444767 -4.892759 -4.247031 2.334428 9.536234 1.348390 1.260558 4.471353 -6.097502 4.835903 -5.703126 1.668095 -1.911742 6.455787 2.112171 6.793021 4.566457 -6.115619 1.606683 0.900002 -9.135095 -3.433723 3.636144 4.049325 -2.443352 -2.436375 -4.123285 1.702686 0.007982 -7.505600 1.079535 -0.988279 2.171430 5.514672 1.233570 -3.595362 5.828777 -2.388419 0.756062 1.741429 -0.310852 -2.098288 12.551467 5.433300 2.308148 -1.692430 -2.445323 3.152312 0.966003 0.502551 0.484741 4.520891 5.234752 -2.622587 -8.794895 -1.563076 3.752444 -1.577232 -0.490382 -3.536863 -4.454059 6.575784 6.194895 2.788223 3.436358 0.901771 -3.622519 2.940028 0.157016 -0.176072 -3.650729 0.206900 2.354728 -1.646462 -9.832401 9.812108 3.030772 0.680788 -1.027742 -2.417320 1.359259 -4.559350 1.743020 -5.687309 0.272874 2.535239 0.025384 -2.152338 3.961769 0.493822 1.388161 7.512443 5.534131 2.733560 8.171612 -3.534754 -6.947143 2.645827 -1.210730 -2.832597 -3.993784 -2.451450 0.719999 3.371063 10.650071 -2.732328 0.619353 2.526007 6.122826 2.790114 -0.951766 -0.755670 0.868972 -0.060517 -2.000590 -0.414321 -4.610247 9.879676 1.206242 1.687825 -0.400141 1.602693 0.694673 -3.921776 0.789071 3.615681 -3.482400 7.055305 -3.706837 -2.495756 -8.537790 -2.099768 7.509527 -6.087570 -3.697016 -4.261968 1.546821 0.050942 -4.241147 -9.432608 1.090409 0.511638 4.204556 -2.901933 3.476892 -5.200675 2.694803 4.577444 -3.107217 -0.895239 4.489459 6.406989 0.380879 1.443422 -3.428450 7.689740 1.023615 -0.005528 -7.320761 3.057111 2.671982 -0.871621 1.332587 8.936220 1.748089 -1.921536 0.262176 6.648977 1.586524 2.827404 -6.928042 4.032563 2.662838 1.473147 -3.037519 -4.483874 2.357855 -9.140075 1.615188 -0.771588 -1.087036 0.471907 -6.314806 -0.537560 -0.713617 0.502954 0.764313 2.340924 4.618372 0.069692 0.176457 -0.049060 -2.689418 6.328328 -1.020686 2.596968 -4.225055 -2.645066 0.033180 3.446911 4.555985 -0.660884 9.691545 -7.964290 7.755466 -5.910377 -3.164816 1.003801 3.034067 0.677315 -1.667726 1.323082 -0.040909 1.097389 -2.696686 -4.245704 -3.072423 2.297339 -1.180054 6.419855 5.186488 -1.354901 -4.541224 5.016866 -5.529225 3.782324 -7.045599 7.963911 4.280243 1.045715 -3.284251 -3.374158 -0.849154 -1.283267 2.093176 2.989681 -11.434423 1.268695 -9.681606 1.900422 1.486468 -8.685372 -1.092867 -0.464398 -4.491613 -1.976807 7.255690 0.883113 1.868635 -3.543565 2.710960 -2.692247 3.260122 0.278374 9.118187 -4.408440 -5.923435 -8.458749 0.623228 2.660327 -2.256970 -4.215602 6.280323 -2.636469 -6.432744 0.375765 8.674236 -3.909266 0.023336 3.280983 1.035048 0.789123 -11.998620 2.520141 -10.358455 -1.547328 -0.763203 5.300772 -4.249028 4.244752 -1.082182 4.644523 4.495366 6.988567 
that -0.185062 0.951769 0.402170 -6.242218 4.462701 -5.050225 -0.377580 -0.382600 4.478926 -0.806935 -0.080111 -1.168169 2.779834 -4.981882 -3.552522 8.228967 -6.196286 0.682043 -0.123469 0.094165 -2.593291 2.045646 -4.348143 -6.604542 -1.913113 -1.040166 2.132004 -0.909019 0.090257 4.559129 -0.939034 -1.941194 -0.464819 1.363801 -1.369624 -1.747196 2.817951 4.117549 -2.183489 2.920069 -1.536763 0.024730 7.600886 -1.157089 -8.241252 0.221974 2.711478 -0.602411 -5.848825 -0.689658 0.610955 0.366940 4.184214 0.759465 -0.654671 -3.250341 -0.293589 -2.099568 -4.534995 1.921281 -1.684040 3.221226 0.146772 -1.062493 -1.141288 0.648043 2.232363 4.275321 -6.153222 3.725629 6.730545 2.686893 4.821761 -1.498733 -3.783912 -0.419558 1.552316 -6.398293 2.923811 -3.443226 -4.930798 0.763750 -1.783451 -3.898382 -0.512697 4.891488 -0.240588 1.022536 0.317807 1.374972 -2.979794 -4.992660 -2.967706 -2.077056 -2.220185 6.352510 2.438171 -1.915624 -3.960072 3.135061 3.734452 1.736293 -2.883977 -1.226740 1.099397 -4.352253 -1.090856 -1.725176 -3.768786 1.600921 0.908922 0.011987 -2.494606 -4.011257 4.333397 -5.759208 -0.424279 3.313771 -3.721015 0.678964 -6.684715 2.399216 -3.750890 -2.064832 4.711336 -0.242328 1.582472 0.172981 2.268233 -7.459862 -3.150588 -0.266269 -0.168179 -8.142232 -3.253707 -5.222769 3.995231 6.286542 2.940982 0.955495 -3.124404 -4.271790 8.415928 1.082858 2.954799 -2.922731 0.824354 -2.438168 -3.171259 8.457989 -2.056733 2.163120 6.194348 -1.116327 -2.661358 0.993076 0.625221 4.622624 -3.174190 2.648019 -6.027953 1.698069 -3.973233 -3.193015 2.460767 -3.954874 -4.933413 -5.774103 3.789837 -3.393494 3.091972 -4.832312 0.336597 3.276007 5.669925 2.346299 -8.622608 -1.956885 0.260227 2.787364 4.104890 0.814407 0.985668 -3.714949 -2.076270 -2.147820 9.506891 0.605078 -1.208589 1.905198 3.925305 0.388004 1.372371 5.836543 -1.046822 3.910819 -0.079096 8.687609 -0.105739 4.623626 -4.462356 0.520306 -1.151881 -1.504642 1.830164 1.973035 -1.697953 -2.865608 1.010162 1.029134 -3.074021 -2.531806 3.221566 3.152973 -2.198299 1.188838 2.327800 -0.318788 -2.923334 -0.382718 -3.893450 3.182870 -0.665615 1.067420 -2.637067 -5.079259 3.043176 -2.235332 2.571754 -1.193662 6.501126 1.375273 5.697183 2.629431 3.218563 2.471695 -2.645731 -2.385314 -1.078169 1.269201 -5.124190 -1.544929 3.244163 -3.021232 0.344087 3.235413 4.342197 -5.097429 0.578258 4.623583 -7.634645 1.754732 6.817135 -0.622481 4.259756 -3.213091 1.968189 2.362271 3.448198 0.883785 -2.295410 3.575987 1.656524 0.656883 6.162341 2.754115 3.548684 -2.293435 3.646770 2.495557 -0.190109 2.749388 -4.107022 -2.972143 4.653247 -5.494330 0.613265 -2.393083 -1.738006 -4.606760 0.026836 -0.493982 -4.561582 -1.418322 -6.988911 1.519219 -5.327461 1.595991 -0.328652 0.901809 1.604972 -1.631485 -0.792119 5.250547 6.004858 6.445140 -1.136355 0.932623 -1.328573 -3.908010 
on -5.215042 -3.897617 -1.602054 -5.237946 8.442760 -5.186855 0.144850 -4.689860 -2.677839 8.709920 1.013958 1.141264 3.987882 -2.753466 -5.916658 1.599366 5.919295 -2.336941 -0.161698 -1.336349 -3.921405 2.521894 -2.861471 2.097628 6.574448 3.256478 -1.295165 4.627311 0.921814 -0.079128 -2.384275 5.394414 -1.476903 4.166731 2.926042 2.506744 0.643007 2.646186 1.314967 -1.728708 -1.360118 -0.193064 1.399273 1.429174 -1.802510 0.994549 -4.049647 -4.988476 -2.916714 0.826072 -3.163614 -2.194311 -3.517747 0.030121 -4.432796 3.143864 2.759114 -0.233776 -0.151773 -6.917761 6.470426 -0.221529 -5.489232 0.269678 3.108983 1.407650 4.162899 1.388156 2.447209 2.057940 -1.865175 0.198573 -1.789647 3.375354 -3.401949 3.297997 -1.399234 -0.807160 -0.259913 -2.882863 3.809559 -2.014766 -1.012279 -1.182525 -2.459934 1.232352 4.382914 -1.797975 2.607928 -3.446943 7.237325 -2.777264 2.139747 0.773597 5.903361 -0.070336 1.734494 -2.869729 -3.810967 4.105504 -6.999523 -2.047996 -1.170929 2.787459 3.150309 -2.509410 -4.624244 -12.445702 3.330404 -8.203507 -0.771773 -4.435288 -5.119095 -1.323634 -6.363595 1.226551 2.253317 4.139233 7.917203 0.757045 -0.447299 -4.808440 0.386780 1.525321 -3.299178 -6.819757 -1.361379 -1.997122 -3.577343 -0.061415 -7.556105 -0.406691 5.024790 -0.803046 1.702182 3.134267 -10.439915 -1.193775 0.474238 -2.460805 7.446284 -1.098559 9.511521 -1.427789 -2.928519 5.379207 -1.155182 -3.750617 -1.047785 4.201901 -1.341983 1.137304 -0.515611 -3.023885 -8.167384 -3.800060 0.808483 3.495811 -0.591513 -2.269731 7.606677 2.951090 3.774456 -1.279827 -3.316566 -0.915030 3.224424 2.820554 3.431234 3.923439 -0.452922 -0.620744 0.362157 -1.396797 -5.297891 -0.463972 8.249997 -1.742509 1.228064 0.799838 -0.159684 4.205375 -1.750431 1.031893 -2.480584 0.633629 1.941547 -3.248113 0.688787 -2.423523 -8.069270 -0.680804 2.775146 -4.102532 -3.198140 7.895612 3.289051 1.629069 2.146861 1.769156 2.359509 -1.831828 9.963139 5.871052 7.817013 -2.427322 0.684635 -1.934023 -0.584235 -1.262845 1.649124 0.388519 -3.020459 -6.056937 4.115145 3.632880 4.001112 2.633255 -6.631284 -2.791106 -0.983288 2.747925 0.050421 1.781693 -9.104787 -6.415330 2.770016 -3.638844 2.964014 -1.356870 -0.293398 -0.759219 -4.545551 9.525229 4.562006 6.273629 -8.065216 -5.824881 5.124162 -3.936280 0.918714 0.593611 -1.712219 -1.505928 6.009340 5.815738 -4.545454 -2.699674 5.361459 2.405349 -4.454171 0.235404 -1.464562 6.708466 -0.578590 0.042136 3.342695 -9.014562 1.065486 -4.330169 -4.339831 5.016821 -5.287113 3.774569 -2.336902 -1.050767 1.378886 -2.420118 -3.975089 -4.497199 3.812850 -3.584422 2.178540 -4.092720 4.077507 -2.516073 -9.121957 3.057943 1.685794 2.630330 4.132769 -9.832187 0.234832 2.126585 5.278893 -6.623813 1.054307 1.891693 4.266953 -3.411765 0.961502 2.605145 1.339339 0.632378 -6.049201 1.863637 4.945649 -1.881354 -9.200041 -0.952478 
from 2.155512 1.363967 -0.269169 -0.164017 2.031442 -6.748975 -1.733341 1.049074 0.604428 -0.329224 2.307933 1.147106 -9.753548 -5.326903 -4.253622 0.435817 -0.222028 2.295329 -0.656830 -3.823063 -2.771109 3.926307 -0.941370 5.357575 3.523179 1.040333 -0.472851 -4.508900 1.486483 0.585420 2.481079 -3.517261 -3.328135 -0.678270 -4.313357 -6.957948 4.491469 -1.479855 2.768735 1.796308 -2.508195 0.570463 1.998391 4.439173 -2.819721 -6.090000 3.572668 -6.312755 4.608520 0.952161 3.452209 -2.531818 -4.738062 -0.024899 -0.381549 -2.322912 -1.359265 -1.268697 -0.330941 -5.506756 3.141404 0.475165 -2.357741 -2.715692 4.831594 -2.255709 2.879827 0.172983 2.830543 2.690309 3.506037 0.944538 -3.082994 -3.553914 2.113313 2.888554 0.613006 -0.589551 -5.581038 -2.802037 3.920901 4.593279 1.683399 1.742417 3.007330 4.775974 0.409561 1.230420 2.105335 3.714054 2.430513 -5.473463 -4.021987 -4.201499 3.471504 -2.746148 2.130039 0.441730 -1.828490 2.714811 -1.465380 2.623048 -1.237654 -3.269081 1.613819 0.644255 1.126305 -3.844542 -7.354722 -2.780545 1.132700 -0.662496 2.454470 0.792984 -3.039766 1.361348 -0.085223 2.784774 2.534829 4.775544 1.762632 -2.110388 -2.665830 -7.992556 -8.376051 1.422378 -3.052802 0.296108 0.169004 6.839761 1.219615 2.671371 -4.046911 1.525212 -1.365764 2.498410 -2.264163 -0.728891 2.393556 0.267109 3.134144 0.489512 3.631894 -3.331283 -4.158895 0.143285 -4.555624 1.281070 -1.276863 2.700430 0.902887 -6.278657 -6.088398 -0.081597 -2.022840 -1.940747 7.202520 1.307425 -1.265480 7.261567 4.094369 0.241684 -2.440583 -3.236072 3.117964 1.511732 0.950134 2.227722 4.779627 1.103531 1.951241 -0.234528 -1.483621 -0.287553 -5.092327 -0.502890 2.047029 -2.043868 -2.999857 -2.962216 -1.196724 3.668759 1.470672 -0.856305 2.276488 6.432165 -0.514346 -4.507369 -0.658199 -2.498516 1.000248 0.150956 -2.334712 -2.492578 1.965057 -2.685905 -1.441145 -5.601223 2.211506 -1.763674 11.173795 -4.110896 2.185613 -2.326104 9.502208 -4.327880 -5.127123 -4.332681 -3.640250 -4.461984 -5.315539 -1.008495 -4.910580 -2.420973 2.971520 -1.823472 0.031024 3.660560 -1.506857 1.526595 -3.133707 6.826052 -3.782591 0.887647 -0.796462 -3.097888 5.856914 2.559525 3.239856 1.379731 0.435137 -2.712496 0.481979 2.948386 3.526227 0.394381 6.116131 0.142410 -1.498978 -3.910072 -0.120227 0.209982 3.575453 2.894678 1.897796 0.965729 10.206983 -0.577441 4.064032 1.766587 -1.015952 4.992764 -1.101545 7.074296 1.332510 -0.822416 -7.239859 4.428985 4.739502 -5.467681 2.433346 -3.222871 3.373683 -1.996638 0.344316 -6.191374 4.658424 -1.828115 -2.839535 -0.816944 -4.539952 -2.633361 4.901535 3.080915 3.893210 -1.458736 -0.966622 -0.585859 1.374158 -2.334359 -7.145959 -1.828307 2.075411 4.201879 -1.541862 -1.840953 3.345181 -5.349545 -1.491444 0.535231 -2.672103 0.776775 2.828526 -5.995386 -3.611347 5.753920 1.900426 -5.881843 -6.287650 4.319564 
is -2.987552 2.437538 6.010740 3.332814 -4.865814 6.130348 1.694123 6.140495 1.882412 -0.875050 4.217458 3.350684 1.753620 3.959233 3.358671 -2.268297 10.835281 -11.411231 -2.343320 -1.896702 -4.520736 1.332746 7.050421 -4.515080 -5.982634 2.735500 -5.166626 -3.556957 0.009081 -0.089254 0.097298 5.708447 7.763270 5.884920 -1.774432 -4.922554 -4.242018 -3.371608 4.795902 0.467982 -2.486982 -3.356009 -5.336009 1.661988 0.465277 0.032363 -2.228760 0.386188 1.824853 2.250762 -2.918443 2.751899 0.173075 4.945284 2.587521 0.751850 -2.935884 -2.322483 2.260737 2.666637 0.183390 6.836213 -0.288093 2.035772 3.926513 4.507008 2.743067 1.381502 3.524328 1.426766 0.871657 -3.218539 12.264245 -1.219272 4.184765 1.475866 -6.918024 4.559244 4.491153 5.135661 4.022291 2.750413 -1.505140 1.370908 4.124475 1.730469 -0.310817 4.170562 0.236080 -3.307329 -5.050935 11.341297 2.241771 -0.094787 0.798994 -0.808712 0.247479 2.791256 -0.307471 -4.383859 1.929273 0.491393 3.446486 -0.355247 2.158455 -0.770477 3.494817 8.268663 -6.390534 9.069105 5.058468 -3.820533 -3.360439 -1.324554 -0.187580 -1.817982 -3.872705 -4.384013 -1.187174 -0.043961 5.806988 -2.272990 -0.053241 0.353639 7.286953 1.035290 0.396019 -0.280914 -0.625718 -0.002025 -2.804017 -3.681174 -4.489417 4.396695 -5.553860 4.215723 6.694591 1.280487 -1.767081 -11.308306 2.073159 4.294598 -6.317867 7.560977 -1.552372 -4.743899 -2.182325 -3.271047 -1.645854 -0.363473 -3.566061 0.391465 2.577688 -6.022966 -4.753756 -2.525859 2.451845 -2.137993 -0.797140 1.045940 4.547397 -2.095832 6.686285 3.891795 -6.153627 0.681301 0.971965 1.091091 2.794629 -3.149402 -0.138479 1.011218 1.637499 2.361032 -7.468982 3.793574 -1.780112 -5.123154 4.446304 2.212611 0.148393 -7.382071 3.042464 8.171164 -3.859563 -0.846326 -2.224179 10.342980 4.124606 0.302646 -9.133875 1.173249 -5.877308 -3.009960 5.039962 3.846383 1.625176 -1.901523 -7.246620 -6.543681 -0.264691 0.771171 -1.801046 -1.358260 -0.699129 1.732971 5.402960 7.952454 0.781519 3.465868 1.757562 -4.258131 -1.827242 -0.580440 -0.997641 -2.910920 3.695510 4.804513 7.419768 0.936492 4.492791 -5.500284 -0.032739 0.969087 6.218526 -3.209093 -1.427897 2.768160 -0.877622 0.032711 1.308108 -5.396793 -3.550303 0.061312 1.544143 3.722427 -1.747024 -2.651364 -0.057210 -6.057489 0.528279 7.382364 -4.471591 6.846304 9.082247 -5.652409 0.783280 -0.424086 -1.621616 -1.663731 1.336452 -4.122142 -3.561345 0.792214 -10.873404 -1.769498 -0.904368 -5.376743 2.059427 -8.751702 -0.843714 -2.980624 1.677925 -3.330496 4.589316 0.117987 6.193725 1.239069 -3.389703 3.995304 6.934472 -2.014093 -5.080878 -5.606484 -8.411243 2.780657 -0.299220 -5.276226 5.008003 -5.568525 -9.081347 1.105748 3.350636 -5.421721 2.345116 4.082512 1.873182 -2.379740 -3.736944 0.269887 -7.432922 -4.390465 7.747773 -3.771434 -7.466471 1.704310 -7.679427 2.728549 -2.726761 2.611273 
were 2.989794 5.591747 0.392316 -1.986448 -5.114586 -2.589725 3.829174 5.371037 -0.935291 -5.387485 2.628448 15.201399 -3.239555 -2.178729 -4.130144 -5.030510 4.737554 -3.982049 3.691870 1.797572 -0.257401 -2.820698 0.262996 2.691561 2.332867 -1.280831 2.113904 0.172372 1.148081 7.064080 2.798712 1.161337 0.691011 -0.599626 0.604823 1.270554 -9.476974 2.237992 2.150211 4.201776 -4.772744 -1.851413 -2.016668 -2.367554 -0.391194 -8.012011 -0.644611 2.155078 4.424668 2.837072 3.981334 0.467956 7.547654 -5.491133 1.913811 10.301011 -3.460764 -1.819200 10.240856 0.889774 4.537844 -2.094804 -2.536683 1.192764 -0.550881 -1.011402 7.604146 -1.650445 1.652555 -9.455992 -10.622120 -3.754169 0.691866 1.007206 -2.982858 -10.583407 -3.924995 3.345704 9.997885 3.676478 7.728569 5.654122 3.139152 6.931276 2.516796 -3.592558 -3.800253 -0.577537 -0.847165 -6.904365 -7.308745 2.682266 3.676214 0.638474 4.302942 1.240406 -1.188095 -7.140273 -0.215989 1.928055 2.434283 -1.979610 -2.361001 -0.345831 3.059382 -2.339555 -1.656539 6.895453 7.055865 6.042005 11.494812 0.429421 -8.265373 2.717283 -5.532102 3.074168 -5.786066 -2.428003 0.811510 0.726103 6.235810 -3.528926 -5.459974 3.629684 5.823877 7.796759 -5.041246 -3.164682 1.505687 -2.517130 -3.405183 2.539597 -3.622990 7.136546 4.060463 8.233008 -4.190731 -0.416739 3.781278 0.830958 1.506710 4.265874 -6.681825 10.958652 -0.344352 0.548776 -7.607461 -0.120532 8.464199 -3.609093 -0.779939 -4.918358 -0.113608 1.184558 -9.428986 -14.728081 -0.020591 -3.715915 -3.367876 1.647358 7.080601 -0.922808 0.005617 0.732904 -3.031441 3.085160 0.218437 1.129903 -3.080624 11.042964 0.208641 4.205889 -0.639377 4.959743 -8.342245 4.185686 -1.931497 0.317230 1.268198 5.443476 5.060590 2.061476 3.597175 -1.927939 -0.522216 4.481456 -2.764948 0.088897 1.188738 5.334033 -2.523881 -7.093805 1.804703 -4.994318 7.091354 -3.852268 -0.447330 -8.463545 -3.796484 -1.119448 -0.579154 8.987634 -6.455454 8.070254 4.127152 0.549092 -3.360018 5.895488 -1.291724 0.399036 -1.219537 3.785969 -1.403845 -3.390347 1.239951 -0.377902 5.204409 -4.672370 -1.450200 -3.963782 4.978183 -6.620634 1.128029 -5.351629 0.832926 1.811605 0.587854 -0.898442 -5.997044 8.375258 -8.823344 -2.054417 1.884332 -1.117819 -6.011746 0.301821 0.320837 3.142692 1.514347 5.023453 -10.954920 -1.227904 -4.075127 4.088824 2.999216 3.006186 1.176401 -1.650725 -0.018106 2.369050 -4.227859 2.418443 -7.368375 2.739242 -1.391458 -16.166616 -3.806026 -1.460063 -3.317878 -0.998471 -3.913318 -2.394753 8.157611 5.334646 -3.341911 0.600778 -1.876935 4.542295 4.823193 -9.165753 4.767701 0.190782 -0.512165 -2.240006 -1.645803 3.330072 1.867331 -6.586637 4.780999 -5.972754 -9.212774 3.322791 6.135236 -2.665374 4.971229 0.976535 7.274880 -4.498641 -3.978232 0.168803 -9.319435 -1.805952 -0.136358 5.652204 -5.984664 7.193448 -0.434797 -0.425589 1.032506 4.854886 
as -1.177186 4.221585 1.284932 -8.316081 -5.277716 1.426471 7.480831 -4.506356 2.985115 2.019168 -3.277349 -8.373620 -4.146918 0.353702 2.243008 5.566653 2.761370 -1.289751 -0.403980 0.088128 -1.961680 1.881234 0.318811 -3.310059 9.699677 7.242649 -1.424824 2.364151 2.794233 1.305747 -1.367778 -2.220726 3.310574 -0.039844 -6.257655 -4.612186 -2.596046 2.340694 -4.817636 -0.697199 -2.103550 3.851006 -2.894184 -0.314856 -8.944541 -7.636340 3.364025 -3.863004 -5.744849 0.109852 3.967216 -1.931484 5.040062 1.349644 1.256417 -2.335802 -1.153434 1.899700 -6.028911 -2.551405 2.787146 -0.861337 0.159350 -1.395537 3.930355 1.958543 -0.167139 -0.589723 -2.057937 -0.405504 1.995439 -3.079452 8.457166 6.312328 1.232138 -1.994751 -2.107578 -3.761913 2.231053 5.453510 -2.629016 7.017169 -3.884043 -1.506753 -0.649303 1.432423 -2.449875 -4.154032 2.590293 -0.485045 4.179516 -5.896262 -1.900254 6.295252 -4.256572 4.021673 -2.710037 2.455611 5.227793 0.791260 -0.386443 0.615798 4.366311 -10.588443 3.438591 -3.711306 0.225191 2.164901 1.797455 4.932987 -2.249100 -2.501580 -2.761804 -1.365859 -2.401098 1.783487 1.923699 0.949320 4.497382 0.338516 -2.487512 -5.308916 -8.215369 -0.351513 0.827637 -1.611269 0.673005 0.672451 -1.420958 2.494964 -5.409414 -3.235537 -0.926355 10.231898 1.787830 6.655916 -6.746346 -5.901913 2.934659 11.443152 3.370962 -2.769930 2.954647 -1.508162 -0.589498 -5.960579 -1.015021 -3.411797 -0.025246 0.846344 -0.161368 1.930075 4.206213 2.293188 -2.090618 4.867073 -0.095310 -6.727034 -4.213745 0.596128 -5.173653 1.945786 -0.243611 1.381784 0.648214 1.618421 -3.007652 -6.875531 -1.933070 5.448749 -2.260648 0.603753 -3.220222 3.755030 -2.527365 0.785781 -0.233519 6.240919 4.324173 0.719466 2.820569 -6.631237 -0.348363 2.756893 -2.760618 5.099919 3.983051 -2.370718 -0.978469 -0.571943 -5.666719 -0.831116 -1.259250 0.541560 -0.928362 2.639405 -3.125908 0.356268 0.674538 0.024309 7.554668 -2.084345 -1.463237 -0.456831 -6.272029 3.418751 -3.539837 -0.552830 -0.716202 -2.568693 -2.490153 -2.072298 -7.271504 -9.005260 0.970587 0.824446 -3.216608 3.536887 -0.589869 9.261726 3.412524 1.978793 -4.739851 -0.634910 -3.193217 7.158800 2.615798 4.687190 1.928753 3.961529 4.309952 -1.051060 2.960194 3.997652 0.096518 -1.466947 -1.007292 -1.550693 -2.863400 5.587214 -2.125097 1.814745 -2.260730 -3.052893 7.932648 6.120759 2.426349 -2.859787 -3.911778 -3.806132 2.553543 4.274403 8.139063 4.339136 5.145998 8.123397 0.055042 1.796801 0.003953 3.185287 0.643964 0.081114 -0.530056 -3.418801 1.463498 -0.389927 -1.481308 5.639389 -4.440051 10.503222 -1.400699 -1.013210 0.220408 5.278021 -1.749203 -2.929968 2.428987 -0.891394 -1.462403 -4.091593 4.296927 -3.333649 0.596473 2.144857 0.031892 -1.574643 2.428523 2.425969 6.588410 -3.487499 -5.314357 -5.398468 0.351902 0.692785 1.261204 -1.746212 0.104854 -2.336035 0.412254 -0.657012 
at 0.988805 -2.664061 3.068037 2.176441 5.188201 -2.457544 -0.998302 0.725532 3.978640 0.603165 -0.683004 -3.797980 -0.667894 -2.028691 -0.369425 6.739406 -0.540008 -5.480092 -0.584530 3.166525 1.125630 -2.242543 -1.959956 4.005002 8.299622 0.419589 -0.541138 -3.845206 0.910929 3.762160 0.566469 6.993932 -4.104288 -3.884591 0.274808 -1.090291 -0.850655 -8.634083 1.444782 -3.218390 -3.724122 4.956828 -6.270785 0.346572 2.309983 6.055843 8.570587 -3.856268 7.185606 -1.461523 -0.349092 3.281234 -2.868957 1.387082 -2.989034 2.553433 2.577110 1.317224 7.653400 -3.217577 -1.141049 1.421530 -3.128911 -2.025063 0.377839 -4.519359 0.189468 -4.084504 3.814835 5.661996 0.317954 0.091453 -2.099485 2.999111 -3.175766 3.493984 5.173020 -0.644769 -4.768678 3.521333 2.690828 4.637100 -0.884680 -3.380894 -0.205243 0.295647 -1.207172 -2.653206 8.818357 -0.583287 -1.315210 1.685367 -1.543309 -0.344454 5.770288 4.510025 -2.081865 -3.560188 -1.407075 -0.272134 3.150344 -0.432812 0.122013 -4.595531 3.314266 -4.678769 -1.073934 -4.362268 4.136126 -4.193113 2.126711 1.275538 0.385471 2.334497 -4.064059 -2.181055 0.519022 0.954420 4.883858 -8.181529 -10.641768 -1.486340 2.593258 -0.120729 3.462544 -0.619581 -0.581909 -1.438522 -5.362636 2.596123 -0.752265 5.482029 -1.110012 -1.938911 -2.093023 -1.631418 -4.162652 -1.353804 1.031823 2.803157 -0.962791 -1.743715 1.960992 -2.948627 -1.324645 -0.947630 -0.645236 2.231138 -3.329152 0.547040 -2.610055 -6.398599 -6.693181 5.082011 7.041775 -1.344686 1.066792 -0.587326 -1.182561 -0.308870 2.976825 2.221607 4.721451 1.939933 -0.834400 -4.105164 2.773346 -4.460023 1.448055 5.483557 -0.568760 5.060738 1.933992 -8.812715 -5.596241 5.578953 3.105270 2.753982 3.657670 -1.285740 -5.922959 0.544203 1.296100 -0.855202 -6.012764 4.198711 -5.344697 -2.155259 0.524336 -1.730653 1.085955 4.830740 1.231939 -3.855011 -5.847175 1.317697 -1.631753 -0.898914 -0.246795 -5.087745 -1.261844 -4.734419 2.592395 -0.505161 -0.323669 1.400989 0.591924 1.981309 2.699314 -5.642976 -3.515476 -0.561072 -2.778031 -9.153835 3.814921 -0.240406 0.785358 -1.256196 -2.993344 -2.714149 1.966842 -3.466711 -3.119686 -1.606673 -3.867657 -3.642807 8.675613 -2.583759 0.329880 -2.393086 -0.409183 2.286601 -0.689341 -4.206809 4.893796 2.349151 -0.702765 -2.352873 -2.581431 0.489354 1.511254 4.354146 -2.403054 0.062799 -2.264879 2.444885 4.003402 1.184768 1.372804 3.460672 -4.811053 0.107806 6.476845 -2.293728 -1.555489 1.749983 -3.028906 3.840243 0.712996 9.229565 -2.391564 -8.473668 0.104198 -1.687339 -10.202085 -0.782360 1.909081 1.860548 0.915592 -1.112550 -2.560053 -0.512798 4.249453 0.115923 -5.945721 -4.091622 2.556827 3.435124 0.264202 2.354031 -1.520808 2.991895 -6.391166 1.314666 -2.317509 -2.829256 -2.925679 -1.638349 -1.783412 -2.925685 -1.350692 -1.663849 0.490969 1.998182 -4.267292 1.364003 3.381074 -0.127816 -1.331020 4.292147 
he -0.165091 -0.006126 6.395106 -0.066145 -2.181251 1.214441 -5.868050 -5.619477 2.056741 -1.493837 -6.704659 0.817533 -7.031316 -6.989469 1.278455 8.318342 -0.193478 1.435999 -5.695250 -3.136783 0.729927 0.250068 3.344074 0.333363 -0.112548 2.898121 -5.224345 -0.063487 -1.438577 4.595718 -1.613712 1.826104 4.517459 -7.103495 -0.222028 6.528690 -5.314132 6.471763 -10.121322 3.047019 -2.926320 -4.191864 -1.357590 -0.576871 2.706608 -2.602579 -4.556910 7.692708 -2.532480 3.629478 -0.134119 -3.000487 0.833952 -3.362002 -2.618402 5.707366 1.154024 2.452518 -0.402294 4.290807 3.051475 -0.401970 8.595287 6.766183 -1.053107 -5.268850 -2.298029 1.556775 -0.787792 8.527315 -3.114947 4.460276 -3.377104 6.589917 -6.398092 -3.973934 -2.357246 2.970225 1.994637 6.349928 -2.140580 -3.368178 -1.479074 -7.358501 -2.952326 0.904432 -3.825783 -1.030724 3.895811 -2.790479 -2.256649 -0.071041 -2.241282 -2.664670 0.969552 -0.266886 -2.741614 -9.466593 5.064750 -3.241709 -3.070338 4.607520 6.561575 -6.762317 -0.214978 1.795289 -8.777447 -2.503338 -2.768385 1.301268 -1.865677 2.169904 -3.511436 -4.940899 5.685077 -1.516527 -6.558350 3.073963 -6.859699 1.578549 2.673218 -3.636571 6.248036 1.862077 4.095029 -3.052715 3.133395 2.433379 3.041722 -5.567690 -3.064910 -0.104677 -3.341404 1.405537 -4.439564 -1.309795 0.623725 4.987284 9.882071 -0.684494 -4.668056 3.062656 2.755250 7.491016 6.516054 -3.342159 0.641649 -3.815107 -3.597361 -2.416398 0.433311 -8.163808 -2.233509 5.940747 0.586903 1.840008 -4.604366 -0.936103 5.270989 -2.130542 -9.152671 -6.919391 -2.274881 -3.328587 3.133954 2.065714 -1.405641 5.028988 -0.526498 -5.065860 11.751982 -4.028968 9.857759 0.304191 10.188165 -5.199077 6.273515 -2.669808 1.530437 -0.431787 4.979017 2.269517 -2.023483 -2.301149 -1.261540 4.381281 2.356444 5.065737 0.999200 3.012676 6.554115 1.053753 -0.122741 -0.102111 -8.134274 0.919586 -5.052500 7.973362 0.125005 8.749395 -1.766374 9.504161 -1.644925 -3.579345 0.056732 -4.101883 2.202656 -7.534634 -1.001801 1.555353 3.301055 2.749579 1.664267 3.533847 6.300330 2.307571 0.542434 2.707359 1.747779 2.753891 1.862124 -1.486201 -4.645536 5.496817 2.643344 -1.736143 -3.405951 -0.173949 7.909934 -3.285734 -1.965102 -4.040518 9.489055 4.700130 6.145458 4.864548 -0.195522 2.031039 -1.145183 5.619220 -3.411059 4.665537 -7.459648 -8.264994 4.538253 1.631708 6.654807 -3.746280 1.264691 12.087841 2.850458 -0.593870 -4.435044 -4.113981 3.928407 2.990055 2.070107 -2.342286 0.992889 2.352779 -6.811511 0.926031 -2.898696 4.488784 1.571308 7.585969 1.709482 1.494106 8.792715 4.391895 -4.988888 3.387717 0.937289 -5.383334 -1.167611 -0.482546 0.833891 0.634812 0.677168 -2.218879 -7.511328 -2.966305 -0.286972 0.858941 -6.310854 -0.846256 -4.684878 -1.062511 -2.904771 4.749378 7.242842 3.162205 -3.379966 7.144514 -0.050926 2.127584 0.202331 -6.103814 -2.187196 -3.579785 
its -6.502826 -2.209966 -4.262526 0.208265 6.745997 2.536653 7.158298 -1.801709 2.552290 -4.367105 3.820938 3.711981 -1.009749 4.271179 5.917917 3.946491 -4.994667 -5.926253 -0.228087 -9.384167 4.151808 -1.988397 -4.542901 -4.891475 -7.208123 3.583375 -7.119292 -0.771395 -1.790995 -2.353668 -7.165478 -1.336336 -2.484830 -1.168706 -7.768751 -1.016223 -8.787468 4.011957 1.291757 -4.014558 -2.573050 3.503312 -1.931904 13.311840 2.469348 1.219674 1.330973 -9.509990 -1.267687 4.166177 2.122087 3.477718 -3.207231 6.257452 -11.094392 3.320442 7.581462 -4.294303 -0.669314 3.067653 -2.639484 7.975525 3.717708 -4.320041 1.937624 3.613466 -1.663024 0.042271 -5.853294 -0.752924 8.233138 6.240452 3.630844 -6.784305 0.875537 1.092589 -3.011101 4.954762 -2.708391 -5.037291 0.626585 -3.929712 -5.598645 -0.178594 0.162608 -5.179188 -0.521141 -0.026521 1.237150 -11.259109 -0.246432 2.870109 -1.466210 -4.644188 -2.181057 -3.011993 0.023193 3.755696 -3.044717 -1.604902 -1.570821 3.058832 5.962178 8.990990 4.514448 -1.797534 -0.786802 -3.585945 -2.331254 -2.703093 0.338289 0.961134 -0.949875 3.245994 0.394961 -0.923943 -0.615565 2.514432 6.434315 4.711680 -2.822043 8.359130 -2.597923 -0.963372 -3.644068 -5.245820 -0.317572 3.533091 4.728265 2.943992 1.731357 -0.221433 7.083416 -2.277253 0.327968 -5.256604 9.945463 3.024297 7.462836 -5.940279 -3.420453 2.128088 -9.876017 -1.995374 5.639194 -4.894949 3.932659 4.514239 4.232979 -2.416588 5.336378 -1.799721 -2.532841 -3.645379 -1.429981 -5.581080 2.039037 15.263959 1.055044 1.606986 0.984635 6.240448 -7.883170 3.611274 -1.834925 4.195629 -4.373766 -0.803003 4.165992 -3.957211 -6.799410 -3.315509 1.867979 -2.813874 -1.582044 2.223402 -7.702041 2.744500 -2.506773 -2.157604 3.232242 7.553536 3.749960 -1.194106 0.551290 -0.665740 -1.153537 -3.361006 -1.001010 0.908655 -6.892960 5.492491 -1.622275 1.446767 -0.087751 3.861326 -0.171555 3.083213 -2.846354 1.360116 0.468453 -6.521636 7.232047 -6.696854 1.066859 3.461204 -1.233033 5.731735 0.676390 2.044646 -2.608529 -4.333089 -5.023546 4.117038 5.107399 -3.647059 4.277969 2.858320 1.542535 7.509765 -0.400407 -2.944501 5.695642 4.278843 1.097026 4.595901 -5.758790 -3.013345 -0.566648 1.728999 -6.972900 1.315956 -7.403316 -1.940416 -0.921738 -2.622815 1.469045 4.758064 2.761697 1.074508 -5.569267 -0.002533 -2.438225 8.136485 5.270639 -4.740264 1.681353 1.715488 5.568756 -2.976448 5.216300 2.298783 0.588135 -4.671208 -3.528848 -3.930267 -1.298170 -1.225590 -4.210866 3.761901 0.228642 1.332922 -0.698524 -4.502133 -2.301548 -2.064884 4.351401 2.113890 -4.474321 6.284551 3.493257 -1.120414 -1.130710 -3.433101 1.210509 -3.621736 -1.545170 3.265516 -0.962283 2.495769 10.215621 -15.259432 -1.614251 3.258887 8.986270 5.303635 -2.887698 -3.820183 1.118939 -4.128147 -0.399337 -3.827800 0.894886 -1.371658 2.351412 1.925961 -3.678730 -2.099043 -3.489682 -4.415182 
an -2.849422 1.190648 -6.738343 5.797472 -0.202187 11.925758 -1.594368 -4.801936 -2.940947 6.201373 3.289345 -1.940343 -1.196434 1.541062 3.145151 -2.549293 -2.563824 -9.115758 -2.102438 -2.525546 1.143244 6.829319 -0.333354 2.150654 -1.202506 -3.436322 -4.138595 6.722747 -3.695730 -0.557166 -5.849762 7.106565 5.135644 -5.763585 2.349158 -4.564360 -4.716521 2.974967 1.407643 -2.354143 -8.119901 -12.429299 1.924225 6.321626 2.804650 8.220856 1.931996 2.511416 -2.152122 -4.907365 6.376290 4.189332 4.890749 -5.624759 2.885041 2.471898 3.159945 2.980399 7.370059 3.544924 -2.053507 -4.420029 -4.049418 -6.190165 8.731297 0.962041 -3.952311 3.427916 -2.339815 2.289066 -3.436303 -2.988266 2.643760 1.146052 4.877155 2.693442 0.131720 0.948465 4.912708 0.741058 0.760734 -4.959467 -7.974038 0.114151 6.051137 3.356999 2.673308 2.046346 4.155656 1.512172 1.320938 0.861969 -1.102241 1.372194 -5.242901 -3.770814 10.255296 3.970490 -0.516647 2.338993 2.817280 -4.306540 -2.875360 -1.923821 4.628265 -0.742824 0.945922 5.155867 -0.776689 -2.058107 -5.379011 -0.577759 2.506399 6.760703 4.845965 -1.866691 9.686228 -3.851550 4.752074 -7.315647 8.891527 -5.665972 0.865588 0.889301 -0.845172 7.029146 -4.744551 3.103776 5.954659 0.762006 4.121344 -1.643576 8.820390 -5.702369 0.812185 -6.780991 -2.642420 -1.058571 -0.951435 -4.061344 -0.075643 -10.378423 -2.664006 3.789431 -1.455709 -4.457413 -7.624407 -1.698134 -3.918629 -9.643947 2.765181 2.077430 -0.376128 -3.770599 3.549662 5.754578 -3.378529 -3.591513 -4.437788 -6.421675 6.905591 4.022683 -1.865683 5.265853 1.193462 -0.928011 -3.934384 5.488810 -4.484434 -5.884995 -4.384544 -5.488492 0.905801 -1.589848 5.923134 -2.749351 -14.571616 3.866021 6.058921 -5.258292 -3.985318 0.633481 -10.254742 2.127410 -3.942590 4.265656 -3.622229 -2.307269 5.545089 -1.324162 1.715225 7.282802 -0.027149 -1.166513 -0.520332 2.103743 -1.916405 7.176893 -4.072205 4.551565 -3.668947 4.289198 2.066214 0.864387 1.752347 1.740978 3.481835 -7.270374 -1.135743 0.198210 5.658684 2.650578 3.676381 7.674439 1.569589 3.070292 -2.815971 0.690108 -2.944722 -1.018789 -6.355269 -4.488791 -2.938786 0.807554 -2.051968 3.928149 -2.794348 0.345583 -1.400947 -2.130055 4.379106 -2.227122 -4.057652 -2.386751 -1.536811 3.602665 13.332689 -0.886143 -2.704872 -6.273159 -6.619094 -6.459178 2.774438 9.771319 -1.951714 -0.849481 5.524589 1.823706 1.781358 1.578244 4.046852 -0.254230 1.362714 -3.269698 -2.872575 0.660204 6.790228 -0.050244 -0.725576 -0.984555 -4.630299 4.351000 3.203780 3.206430 0.972459 -4.961337 7.065527 -3.075095 -3.125605 2.233499 -5.010717 1.796160 2.690855 2.786674 -1.662612 -1.667187 -8.271930 -1.093407 -2.130352 1.483337 4.891178 -7.247009 -0.008268 3.208843 -5.777068 4.268826 -0.437162 0.977295 -2.811237 -5.359276 -0.016383 -4.464707 -1.141031 -4.789212 3.007373 1.055314 -3.898847 3.504892 -3.543715 -3.054394 
or 1.021930 6.857072 1.732212 1.803335 -1.838802 -4.348542 -2.145503 5.565779 0.227286 -3.213262 3.287470 4.602482 -2.455038 1.334986 -0.755000 2.699591 1.906607 -0.450067 -1.773887 -0.760176 -1.048943 2.319053 -0.990233 -1.192649 -1.461210 1.924371 -2.006262 2.660041 0.489056 -4.173792 -8.190331 -0.299525 4.204561 0.411810 -2.784847 -2.707003 3.881451 -4.232362 2.204988 1.402180 -6.365263 -4.872938 -1.015965 -2.740127 -5.865287 -0.623561 1.690299 -1.220647 -6.088558 0.217780 -0.475064 0.779027 -4.527404 1.309708 4.778441 -1.436461 0.506487 -1.597902 -0.566303 3.224796 -3.063237 1.248374 -1.219217 2.653681 -0.069052 2.278585 0.034861 0.202086 1.082436 3.811314 7.617846 -2.773907 2.508714 -0.842145 0.781657 -2.401488 -2.227903 -2.132782 1.070375 -0.521908 5.934839 4.122897 0.810478 -0.136265 4.953192 3.844913 1.921791 0.879237 -0.998458 0.914926 4.227106 -3.384061 -4.786040 -1.591863 4.831531 -2.704135 1.977405 2.675187 -1.352695 0.144036 -0.717081 -4.366705 -1.052749 -1.243009 4.503503 -0.017649 -0.510644 2.549297 -4.642052 1.187708 0.491394 1.217841 -0.614021 -2.833376 1.789495 6.663932 3.164449 0.131583 0.279928 -0.827753 -0.247978 1.238733 1.293623 2.475119 5.185007 3.838771 -6.647209 -0.055562 -0.699304 0.111680 -1.038064 -0.541010 -2.016787 -2.766541 -0.844274 3.584925 -3.592609 -3.889802 1.416324 -1.539626 -1.233806 -4.824793 -4.504298 0.494104 -2.572062 0.800376 -0.019956 -1.457738 0.937415 4.037665 -6.484274 2.299848 0.655975 4.335887 1.436360 1.273555 1.497544 -3.882334 -2.986987 2.839745 2.598403 1.784443 1.910446 -1.136837 -1.980663 -1.373234 -2.832910 -2.955785 1.326235 4.631000 1.348258 -2.195974 1.497375 4.431915 -0.708098 -1.923425 -0.443579 -2.775704 0.881217 -9.058403 -0.682638 3.975147 6.599279 -5.655965 0.567371 0.005108 1.763412 2.586928 -3.960068 1.698915 1.030069 -0.017604 -1.109689 7.042266 1.068587 1.672872 3.018140 -7.089937 3.496742 1.018004 -4.383088 2.452363 -4.551328 -0.081878 -0.476340 1.056748 2.662042 2.796751 0.888615 0.045578 3.581198 -1.639304 1.455295 -1.052689 -1.171016 2.570448 -0.082435 1.605533 -2.582004 4.414645 -2.503473 1.631351 1.593196 1.031098 0.483139 -1.243148 -1.547984 -0.045402 2.033869 -0.842802 -1.284127 1.452028 -6.699902 -2.139559 3.750936 2.152579 -3.875689 -3.231150 3.587503 4.897713 2.106944 3.844431 2.572711 1.819233 4.832864 -6.869250 -1.142424 2.277560 -2.349602 2.079357 -5.067548 3.032192 3.124336 2.305872 -2.847086 -2.752586 3.048001 4.639281 -2.885161 -2.060015 -1.403770 0.460451 -1.446066 -2.888897 0.594065 0.439314 5.071445 1.706020 1.212982 -1.428263 -2.610162 4.478928 -1.293833 1.063935 -2.956974 0.284149 2.699281 2.132654 -2.293634 1.697698 -0.801095 -2.290024 1.804197 -2.332993 0.920338 -0.333563 3.879186 1.396378 6.122818 -1.252986 3.649704 -2.817656 0.431497 -0.053167 2.912114 2.529142 1.397227 -3.011399 2.559154 -0.701266 
are 0.073640 5.550125 0.637761 -1.095003 -7.971554 -0.938576 -2.164961 8.057220 0.112214 -6.066778 3.367022 7.908851 -0.727654 3.119922 0.563650 -4.135603 12.546248 -10.729156 4.976315 -2.658081 -13.021891 -1.314060 6.326241 -5.928964 1.874772 -0.851338 6.531734 -2.287273 1.819588 2.495518 1.055249 3.275632 3.257037 7.247429 0.476036 -1.973439 -4.115444 1.419330 1.004940 1.867461 -5.361745 -3.144166 -5.014828 -2.499242 -1.052034 -3.039823 -6.345112 3.068903 3.696702 1.868035 1.012612 6.461328 3.710612 1.150848 4.039659 7.080076 -3.653851 -2.978531 2.532078 0.757277 3.913439 4.766317 -1.854795 1.324842 1.007910 2.550591 9.163795 -5.423248 0.570923 -3.742912 0.003286 -3.115813 8.322198 -0.251242 2.233099 -3.261028 -2.438780 -0.690655 3.827277 7.164459 6.756295 3.983262 5.689631 2.507838 6.267985 -0.328897 -0.030101 2.410034 -3.457294 -9.768928 -0.137461 4.017250 3.870759 1.984420 5.265338 0.659825 -2.674477 -2.342726 -0.679181 4.198093 3.041947 -2.165484 -0.866843 0.072919 1.621400 -3.803373 0.544735 4.644153 -2.714910 10.995828 7.353052 1.576116 -5.661311 -1.920913 -6.893583 1.440779 -4.777627 -4.355069 -0.746940 0.041761 0.461994 -4.608152 -5.879931 1.263508 5.859128 5.861909 -2.373960 -0.565244 -0.303956 -3.836224 -2.126207 -0.754358 -1.711112 3.608582 -0.847739 10.272501 0.212774 -0.777722 1.193704 -6.961107 2.529766 2.527856 -9.114220 11.638803 -0.149925 -5.550437 -2.434530 1.497149 1.714139 0.839535 -0.028433 1.000028 3.342277 -4.449267 -12.548264 -8.742413 1.076587 -5.407510 -7.776204 3.912511 6.273449 -0.416422 5.170603 -3.313530 -6.502690 4.343831 -2.177035 -2.712076 -0.340279 6.050089 1.898321 1.019680 1.320809 5.922785 -9.941063 3.823837 -4.638259 -5.724236 3.292475 -0.552157 2.139947 -3.241795 5.659919 -0.345634 -4.331640 0.592963 0.206372 7.941956 5.096300 2.913061 -7.398430 -1.176579 -5.336801 -0.297432 11.042899 2.363017 1.521420 -10.263153 -4.589954 -6.714498 -0.027135 8.974336 -8.294549 2.825050 -0.660327 1.143869 -0.007328 10.798283 2.116023 -3.169383 1.670536 -2.386003 1.399778 -3.788328 3.398606 -8.139738 4.862934 0.559074 -2.186599 4.297422 4.640173 -3.892624 3.137909 -2.142856 3.497029 -1.714317 -0.685869 -0.133122 -4.166501 5.770997 -6.578134 -4.317872 2.084209 -1.969759 -2.791785 -0.028459 -4.099698 0.581650 4.469401 -7.578504 -4.036077 1.525416 -2.932852 3.938964 8.338598 -5.921860 3.962801 0.335744 -0.840597 2.851907 -5.096138 -3.014921 -0.513618 3.835813 -4.897608 -15.827435 -6.879959 -0.191994 -0.737069 -9.595022 -0.580743 -5.896233 0.422075 3.399869 0.985361 1.295835 0.979980 7.849528 -0.322267 -1.728977 5.147642 4.062536 -0.083659 0.521474 -9.666336 4.216146 3.796464 -7.912722 3.900635 -7.285422 -11.577500 2.896853 -0.004286 -4.324284 4.068975 2.102521 8.151200 -8.832549 2.230477 -1.951206 -5.405635 -1.403813 8.679734 -2.892372 -8.351598 5.364075 -7.864470 -1.621624 -4.749033 -1.268655 
it 1.094275 2.349802 1.590326 2.354692 3.945471 0.536368 -1.778948 1.025336 3.374127 -5.085571 -1.530845 2.028240 -3.921306 -5.216518 0.517127 7.608103 0.840450 -2.280316 6.055075 1.412888 0.978349 4.826233 -1.904943 -0.026148 0.321543 1.117367 -2.630415 -4.527236 0.406042 3.167022 -8.465788 -1.983670 0.035943 1.390177 1.066101 6.824585 0.250539 2.357277 -0.758278 0.883304 -5.138241 -1.370615 -1.452639 -4.089509 -1.877558 -4.063680 -0.625543 -3.066750 -5.892979 4.603163 -4.435574 4.567381 -0.216601 -2.730961 -1.187189 1.463415 0.711648 -3.130819 -1.899049 1.603804 -5.369041 8.549997 3.000864 2.071820 1.313160 0.893400 3.287652 2.689996 -1.090655 4.948205 1.365572 2.160771 2.709826 3.894767 5.878647 -3.629857 2.296531 -3.479140 7.749362 -0.539245 -1.260236 2.239238 3.174905 0.348302 2.523117 -1.986185 2.236221 2.595916 0.748444 -2.740689 -4.762021 -1.944770 -0.833196 -4.005763 0.942987 1.902152 3.434655 -2.133906 -3.170520 -2.860557 -0.090965 -0.817647 4.208839 -1.559762 -0.050226 2.549094 -4.751888 -1.397286 -5.165324 1.096704 -4.223812 -2.980843 -0.757211 -0.460675 8.733269 -3.603027 -5.690753 1.463565 1.976186 5.024230 2.147847 3.181770 0.135123 -1.211868 13.220882 2.687498 0.403087 -0.215176 3.988931 -1.655925 -8.508332 -3.877032 0.825701 -4.484424 -2.555416 -4.742219 5.401947 6.818872 0.598253 1.452492 -6.946002 -0.576747 4.509347 3.606604 6.280861 -5.800777 4.776635 -7.518106 -4.818588 3.662210 -7.673783 1.870397 -0.826628 -1.228033 0.259621 0.794946 -0.706281 -1.478789 -2.792045 2.670264 -4.356859 4.375271 -4.405673 -0.939724 6.242003 0.753250 -2.729429 0.358747 -3.484114 -4.018277 2.914027 -4.987945 8.671248 -3.573571 3.607130 -0.909245 0.131472 0.388462 -4.776348 -2.532734 2.473072 2.202106 0.812073 -4.245749 -11.174591 -4.471951 3.948550 0.216961 -0.015130 2.160969 3.072963 -1.750542 -4.260393 5.045052 -4.764618 0.434678 -3.718533 1.508700 -0.206598 4.162136 -3.362471 0.666247 -3.022190 -6.823931 0.598203 -3.838051 -0.139614 0.001442 5.003420 4.612403 -3.003155 -5.080984 -0.138030 3.943771 -1.432130 0.311354 4.999232 0.091829 -3.812132 3.397071 0.799612 -1.854267 1.225565 2.025779 4.236032 3.943113 -1.084284 1.147823 -0.602110 -0.079637 -0.471805 0.655948 1.081605 2.849388 1.713661 3.124594 -2.574798 5.827541 2.135880 -4.217312 -0.047306 2.913953 -7.957314 -3.551373 -2.218388 -1.401467 2.759310 -1.106962 -2.256212 -2.228275 0.496034 -2.128225 -1.702942 -2.177100 -2.986760 0.249343 3.431623 -1.225093 2.127303 -1.513463 -1.260576 1.437749 -1.133328 -0.308185 0.881403 6.383684 3.383641 -1.837829 3.662663 2.744989 -4.745153 4.818390 -4.261308 0.747270 -4.095009 -3.412956 -3.365373 0.033398 -3.193259 -1.805848 -7.105889 -3.161217 -0.745817 -2.692531 -2.768504 2.297621 -4.498354 -2.062307 -2.810788 -2.787634 4.509805 4.532994 2.741542 -2.118330 -1.864127 -0.757283 -2.560573 -2.522290 -1.107874 5.234961 
but 5.018184 6.384736 5.682292 0.046637 -5.976907 0.836253 -1.232046 -5.061197 5.853061 -1.459346 -4.171506 0.420800 -4.074387 -7.432520 -2.903683 2.891047 -2.164175 5.109080 -0.632617 -0.003314 -3.895799 2.390816 -3.853454 -1.867887 0.118379 -0.328123 1.047310 3.031479 -1.619705 -5.792686 -5.542221 1.223940 -4.242466 0.323129 -0.701848 -0.284999 -2.015109 0.784892 -5.020819 2.244989 -0.304929 2.055923 2.308288 -1.210439 -7.613217 3.837290 7.386170 -0.988928 -5.775506 2.315129 -3.667390 -2.507978 3.945528 2.408626 -0.790600 6.804139 1.419306 -1.459447 2.023590 -3.094800 -0.982922 3.381144 2.690782 -2.353542 1.084464 -1.789517 5.000863 3.444230 -4.022334 -1.589519 -2.091403 5.679074 2.121643 3.314430 2.100003 -3.021561 -6.395600 -6.086181 -1.710661 2.469306 -2.695399 -0.627992 -1.495876 -0.380918 4.394425 3.732448 -1.379372 2.401195 0.243897 1.844737 2.840872 -4.296340 0.169183 5.089082 3.383849 -1.886811 4.004352 2.872465 -0.565861 3.002769 -1.437180 -0.668821 1.722639 -5.731053 -0.407745 1.174493 -5.213816 -1.042179 -3.365451 -1.896466 -3.716327 -0.393966 -2.412853 -2.741478 4.650901 -1.263546 2.462001 -1.912843 -5.136080 4.631458 -1.183130 5.035250 -3.667825 -1.206240 3.505249 -0.836744 -0.976132 -2.572927 -0.644353 -2.908027 -0.861057 2.397036 0.628935 -4.741866 -2.670740 -0.002117 -1.746856 1.157855 0.609813 1.241891 0.606863 -2.312325 1.776777 2.151376 -0.754069 -0.469125 5.471730 1.815012 -2.929324 8.033326 -2.491450 0.649614 -4.891019 0.500276 1.882879 -2.996306 0.092349 -3.405039 0.498113 0.982685 -6.182950 -0.036375 -4.458626 -5.107538 4.008857 -4.356928 -4.813266 -0.865495 1.729469 -2.722146 -0.103079 -0.803477 1.765809 -0.306343 2.174251 -3.492168 -1.724223 -0.578554 -1.206884 -1.701463 5.484994 5.375294 2.966174 -3.381352 -0.670934 -1.583572 4.941576 3.821068 1.682577 7.318470 2.691436 -0.875564 -1.389641 11.847089 -2.491400 3.262547 1.753125 3.203194 4.122132 2.687121 -3.012933 -2.510420 -1.350547 0.215125 -5.148506 1.286484 1.343882 -0.544988 2.754629 0.003306 2.467621 -5.349975 2.112412 1.990481 -1.997306 -1.575569 -2.463953 -4.896127 -0.443222 2.753548 1.483000 4.017031 0.838137 1.945046 4.503324 -3.763203 0.255007 -2.612949 5.057813 -0.573953 -2.217832 2.412477 3.216271 -0.018805 3.376389 0.993250 -2.261547 -2.320774 4.909740 0.095326 -1.730331 0.487073 0.444733 -5.195049 4.364939 -1.252953 -4.342688 -3.474884 -0.526936 4.357024 4.465001 -0.008604 4.112308 0.264943 5.814460 0.121902 -0.625880 2.555729 -1.800696 -0.751006 1.452497 -0.173811 1.267920 1.024684 1.984777 2.551575 -0.999757 -3.868465 3.612940 0.981422 -1.519703 0.626364 2.349215 1.636561 -3.627647 -9.053186 3.845510 0.245565 -1.043394 6.723821 -3.371706 0.559450 3.223706 -1.164739 2.941515 -0.203357 -3.477623 2.130350 -5.247177 -0.572623 3.448591 -4.451520 -2.507279 2.660980 0.242422 2.063712 0.701957 -0.391457 2.975078 4.207869 
who 2.987009 -4.998629 2.252692 6.007575 -0.152201 -1.298479 -5.941770 -5.459749 3.762471 3.927309 -11.450944 -1.506376 -5.305858 -0.121570 -4.693112 4.282300 -1.156678 -1.842845 -1.642438 0.764936 -0.616315 4.708454 4.250488 0.863208 6.660076 -3.050323 5.105214 -4.001348 1.956322 -8.401785 2.092828 -2.768110 1.044948 -4.995167 -3.074167 -5.821880 -1.285866 2.937105 -1.484086 -0.558025 2.631156 -0.491736 5.537856 -2.368402 -8.125181 -2.124066 3.724269 2.026509 -2.449094 -6.964493 -3.914150 -6.287014 2.459439 2.189852 2.073565 5.087265 4.209040 3.338207 -3.241407 -0.410521 5.594234 -0.106016 3.318122 2.118380 -3.288322 1.220775 1.949185 4.670256 0.417238 -3.430938 -3.804588 -0.837594 -0.795981 -3.656903 -1.586995 5.503799 -3.770384 -5.730060 -2.336837 -0.906761 -0.498270 -0.235740 -2.308622 -5.719221 -6.100899 1.665220 -4.328049 -6.390140 2.510212 4.968703 -0.989480 2.788445 -2.354918 -2.902874 -4.319747 3.215372 3.489192 0.136494 -1.788016 -0.330418 -3.417245 -0.749758 4.640707 -10.628541 0.581522 -2.061721 -5.851083 3.710088 3.564611 9.480617 2.076430 10.853334 -0.662605 -5.195720 -0.045165 3.549195 3.533776 4.152628 -2.108803 1.700865 4.271019 -5.982666 3.844130 3.519982 3.027330 -1.079443 2.722532 1.145742 5.780662 -0.973824 0.047231 3.356733 -0.659380 -0.982574 -3.026123 1.345105 2.343783 10.370584 1.951144 2.143407 -0.843825 -3.902837 8.120030 3.842408 10.031249 6.860124 3.106130 4.131553 -1.021352 3.303215 -2.829103 -0.192756 2.128477 4.535977 1.637324 1.507526 -5.873234 0.535154 3.668464 -0.638639 -8.206158 -0.080236 -1.763359 -4.982279 7.030462 0.222549 -2.070251 -3.339933 3.582470 -0.156976 6.585948 -2.702648 5.770072 0.891859 7.294356 -6.270876 3.041095 -6.480249 2.580828 -5.285571 -2.000606 5.661458 0.072830 -3.206309 2.529149 5.072481 3.878399 0.323067 3.036857 3.036081 4.234301 -0.289048 3.749651 3.291984 -9.332860 3.331314 0.665173 3.923408 4.888771 5.634442 4.734324 4.329469 4.255547 -0.938447 -4.258573 1.536664 0.422795 -8.347661 -4.043698 -2.668409 0.486728 3.222723 2.233514 -2.751709 -2.976139 1.070940 -3.471658 0.184610 -0.254149 -1.856725 0.622036 4.764169 0.435768 -1.904831 1.308756 2.360920 4.283240 -4.485007 5.055029 -0.877567 0.758263 0.562466 9.270673 -3.775853 4.294297 1.507216 0.784342 -3.426409 -3.042185 5.085422 -2.774389 -2.522848 0.048175 -3.722688 1.851354 -1.476798 3.048189 -3.085044 -1.105061 0.013224 2.395242 -1.102317 6.336023 0.533296 9.239076 2.732601 4.129056 2.923947 1.204514 2.813190 -0.978284 -1.458213 -3.394222 -2.992953 0.064003 0.297578 -2.567165 1.552403 4.644179 -0.687667 -4.855662 0.163923 1.079837 1.844128 0.788601 -0.621782 2.684026 2.128742 -4.880270 -1.382479 -2.875842 0.636777 5.966252 2.217968 -7.339438 -3.158680 -0.872462 1.132511 -1.221806 -2.040261 8.285455 5.905240 -2.785094 0.717345 8.034019 3.570933 2.307064 7.052107 7.050453 -3.664291 
their -5.974986 1.941998 0.574283 0.108249 2.104393 -5.304049 -1.089486 -2.728994 2.254975 -6.741293 5.094150 3.093216 -2.829407 6.065251 -1.881148 -0.849756 -6.065785 -4.742790 1.730316 -11.042647 -2.390030 -4.694733 -3.688601 1.160501 -1.586623 1.930931 4.401864 -0.977256 2.006938 -1.342477 -6.726191 -2.722583 3.218330 0.729738 -2.396000 -0.123696 -1.130074 2.132235 3.424852 -0.903935 -4.072182 -0.445837 3.085321 -0.202435 -1.617047 -4.569458 -2.753188 1.620416 -6.778342 -4.286304 2.702789 -2.202596 5.373927 4.391428 4.186210 3.914234 3.644122 1.914888 -0.528052 3.870997 0.343208 -0.470020 -0.323426 -5.044775 -5.262100 4.930958 5.822860 -2.604131 -8.785399 -4.624869 -0.342427 3.337524 0.955371 -9.583440 1.722412 -2.546865 -4.140731 -2.824907 -3.537606 -0.741944 2.733378 2.589864 -4.625999 5.041431 -0.631701 -6.429142 -1.374163 -2.237195 -1.213289 -7.466296 3.588403 -8.283499 -2.437344 -1.463431 0.066058 -1.418166 1.368151 -0.078508 1.173595 3.189993 1.583123 -1.553531 1.697927 10.809444 1.446782 -3.814006 -0.153557 0.616113 3.795812 1.080010 4.453309 4.626228 3.035746 0.174767 -8.067619 4.106466 1.616907 -0.493330 2.793410 -0.339057 -1.210709 2.084879 -4.733667 0.502995 -4.438648 2.000481 2.291738 8.423347 0.876829 0.242171 4.847959 -1.533775 8.734169 -4.243298 4.093739 -4.743363 3.250671 -2.963805 3.126209 0.444045 0.864056 -0.693112 -3.440075 3.959948 3.220229 1.790053 9.121439 3.819666 8.371994 -0.611088 4.152054 -0.950425 0.002320 -3.898282 -11.480703 -2.537295 0.642980 3.999331 2.116519 0.475757 3.940725 -0.855234 0.318045 -0.375482 -2.346930 0.820084 -5.863621 0.198107 1.641065 1.557941 -3.258495 5.763117 3.097313 0.890828 -2.335455 -0.643839 -5.297432 -1.230962 -1.712515 -1.212711 -0.042825 10.447213 0.330210 -7.760541 -2.144446 2.794755 -0.266821 -1.824222 2.337929 2.215215 3.892159 1.490749 2.321272 2.256565 -0.479885 3.829563 -1.245285 -8.556495 1.057164 -1.527653 0.570283 0.934336 -4.480865 1.094974 -3.504158 4.672270 -6.632434 4.095826 0.901806 2.347407 2.609149 0.574161 3.357763 3.829023 5.471440 -3.265053 3.424432 -3.045404 -4.140091 4.655556 -5.239531 1.390043 5.189923 -0.786821 -1.424373 7.769384 -4.626372 -1.738075 3.495352 3.673424 -6.818287 -1.574973 -0.511760 0.863209 3.696906 -4.159554 -2.812133 1.461518 6.655717 2.251083 2.308209 -3.413072 -1.454626 0.272330 0.885160 -4.851359 5.200780 1.797857 2.003070 0.422246 0.076317 -4.761604 6.281951 -0.883779 0.563358 -2.370574 -1.464452 3.384648 -4.498557 -0.107926 -0.789362 -3.505253 -0.301291 3.636662 -2.166004 0.624433 -4.040217 6.681860 -3.309869 -4.164089 -3.836327 3.260378 6.559985 5.963850 -4.028975 -0.877797 3.001140 3.072129 -4.256819 -1.712747 -0.032240 -7.390055 0.615812 -4.272285 -3.327558 4.991833 0.759021 -5.183581 7.795074 -4.100252 4.798285 -7.129673 -1.449336 1.992167 6.653005 2.556351 -1.871649 -3.829363 0.527522 -3.656875 
at_the 0.782318 -7.584046 3.204220 1.424446 6.547176 2.951037 1.684586 1.905024 -0.643352 3.218435 -0.387065 -0.852191 3.227831 -1.296837 -1.769728 4.930554 0.476243 -1.901860 -0.421870 -2.676068 3.404115 1.383453 -2.925290 3.569316 6.163264 -0.007254 -1.302591 1.889775 0.138432 1.274864 -1.131291 4.783266 -4.849884 -6.316258 4.891767 -1.549949 -4.976917 -4.164989 1.569062 0.276188 -0.715588 6.697938 -5.978328 -1.373252 5.263795 7.815387 3.308555 1.393798 2.113109 -3.320603 -1.442404 3.625430 1.090562 -5.148950 -1.918829 -1.422487 8.876769 1.072067 5.097771 4.256586 3.831003 -1.197474 1.365399 -3.451252 -8.231546 0.494958 -0.982534 -5.544884 4.320925 4.298639 -8.054741 2.418474 -6.389517 1.998230 -2.412358 7.572074 5.892119 -5.578253 3.479119 6.293905 2.203636 1.703371 1.197872 -3.296473 -7.200562 1.971304 0.276137 -1.420797 4.633512 -0.542827 -2.004338 0.585897 0.744998 -5.036925 0.673164 -2.059789 0.655334 -1.067262 -14.507683 -1.125299 1.952460 0.172484 4.663520 -3.116626 2.529008 -6.270295 3.447172 -5.457244 -0.885516 -8.577135 1.112928 1.038826 -0.933373 8.200025 -3.257840 -1.078608 -1.640881 1.941658 0.012111 -4.894100 -11.554110 0.224388 -0.283205 0.913948 -3.152735 -3.175382 4.038511 -0.379437 -1.089159 4.522112 6.125769 -0.315510 -4.843884 -3.081511 4.090055 -1.360385 -10.427312 -1.132464 -0.541789 6.023094 -2.290002 1.061437 4.575973 -1.630530 -6.701232 0.673284 -3.941418 0.362403 -1.901972 -1.163089 -4.343817 -4.439586 -7.141288 -4.565387 5.187986 7.259586 -1.247261 6.377219 -2.585483 -3.579013 -2.102109 2.179061 5.327383 3.653597 2.097865 -4.696046 5.951981 -7.677228 2.581950 8.557109 -1.858084 -0.858835 -1.618044 -6.297096 -3.333643 7.525577 4.051969 0.651379 0.808871 3.638186 -1.062553 0.654559 -1.809506 3.143981 -2.917783 7.974101 -3.005133 -0.976924 1.830899 -1.736537 2.067335 9.234879 0.543951 -6.677167 -3.319486 1.673016 0.267936 -2.002598 -4.015129 2.274151 2.738175 0.961477 -4.511837 0.798577 -4.139483 6.911117 -6.248821 0.503604 -5.704397 -1.580689 -1.543602 7.084380 -0.222272 -2.687089 5.150986 5.814004 6.590263 -4.236814 1.521785 -2.953049 0.888113 -5.597072 -3.400548 -4.374062 -2.302591 -7.591599 13.224719 -0.740598 -1.004120 -2.278376 -0.347252 6.224514 0.615967 -4.899976 0.657804 -3.317422 2.386549 -3.455515 -2.425049 3.086600 2.800070 4.713455 -5.929618 6.075435 -2.425015 2.819867 2.005376 7.703287 5.066897 4.604129 4.938203 -2.708605 7.268881 -5.414632 -0.574931 6.448326 -4.369063 -0.774476 0.310858 9.666821 1.562672 0.766443 0.269930 0.866168 -6.749554 -1.808564 -4.006107 -3.285128 -0.885472 1.465881 -8.472092 -2.377279 5.699825 0.828014 -4.929170 -2.782236 5.786766 0.597349 2.634995 -0.234227 -5.637006 0.077557 -3.604393 0.353051 2.770957 -0.733054 4.250790 3.004807 -0.715201 -0.291593 -1.990160 -6.190569 0.992146 3.520720 -0.769871 -1.460192 2.796966 6.802050 -0.132873 0.325913 
have 9.167568 9.230654 5.807960 -0.903487 -3.146012 6.530456 -0.205211 -4.633037 -1.738629 -13.237135 -2.863335 7.580786 -2.897695 -1.065485 3.688577 2.040455 0.847143 -0.084910 4.873411 -3.430153 -7.088590 1.390253 -0.726593 5.216518 3.615181 1.806324 7.124880 -4.018655 -1.342237 0.413928 12.807178 3.765120 2.485845 3.914371 -0.576870 6.718402 -5.907160 1.335349 -1.216050 4.380672 -1.211677 2.540035 -1.858762 0.013242 -7.931989 -0.427895 -1.509390 6.793284 3.387867 2.688260 5.313120 0.590264 3.700467 4.335131 2.814379 16.488380 1.588659 6.778794 1.698663 4.191985 5.051905 6.126196 2.483454 3.818592 1.928581 -1.383669 6.393196 0.161734 -2.369147 -1.959528 -3.150584 -6.471401 -3.096950 -2.025323 -0.760895 -6.865445 5.442719 -7.152277 5.098699 5.775293 -2.743676 6.043387 6.276700 -0.493907 -6.891342 1.211963 2.862240 -5.977223 -8.171591 -3.171422 9.723457 -10.664876 6.687708 5.308881 4.229856 1.270587 -2.225141 2.089439 -2.045160 -1.825195 5.418990 -6.758571 7.740483 2.826357 -3.290046 1.353086 0.081088 0.388332 -5.518455 0.244480 4.745046 -4.233808 -2.805639 1.037147 0.021014 -5.665343 -3.678742 3.980154 -0.501228 2.237102 -1.188031 0.279940 -2.179114 2.951082 -1.969350 4.811582 -4.971628 -5.152400 0.786704 -3.625978 -5.510450 -4.641116 6.283535 5.430862 -1.747728 3.377502 -1.700208 5.846822 5.014466 -3.653332 -1.808616 -1.818682 -5.683329 5.750659 2.018110 -7.130143 3.226000 4.742946 -0.520985 -0.490328 3.719114 1.775798 -0.294882 -8.602005 -11.494881 -10.046174 -1.373050 -5.447447 -2.492549 5.493919 6.538919 -1.291899 1.100026 -4.962617 -0.465781 4.286382 -2.242541 -5.383076 -0.828205 6.835426 9.789366 -5.070766 5.340906 6.789451 3.406301 -4.892200 3.967525 -6.040654 1.005960 0.482278 5.420220 7.429011 -1.372011 -3.087420 -6.493365 1.768625 3.444306 4.531054 2.449034 1.681346 -9.518531 -1.261763 -0.045022 3.734785 6.936667 -11.771240 -0.047008 -1.921522 9.110614 -4.705058 0.846950 9.084488 -9.914603 1.161985 2.356764 -5.277162 -4.084227 3.873226 -3.451009 -0.640958 -2.589034 1.062810 7.911423 -2.328713 4.097296 -4.530591 -0.486191 -1.410484 -4.957696 3.663813 4.799431 2.895008 2.511166 -1.392243 -4.068777 2.382698 -2.221742 0.218751 -2.058297 3.619510 -5.159537 3.223861 6.013629 -0.347974 -1.204370 -2.300789 6.754370 -2.601594 -1.197221 -0.781616 -3.126603 -3.691787 0.276261 -6.801587 -2.436671 1.304228 4.732316 1.464197 4.484808 -4.118754 -2.960111 3.243499 2.539272 4.670492 5.109643 -11.637433 -1.885387 1.159030 0.397978 -3.896197 5.674202 0.029918 3.052954 -2.006844 -3.438945 -4.436253 -4.744658 0.076283 -0.571068 0.903769 7.610568 0.302476 12.799176 -7.053897 0.350886 1.380294 5.297943 -1.642073 7.013095 -1.723989 -0.736305 3.427743 2.699515 -4.578336 -2.026007 2.896031 0.161150 -7.578274 3.160600 1.068518 -5.172264 3.306758 0.491605 -1.991486 -0.671774 3.333426 -3.945990 -1.203221 -2.171211 1.902173 
from_the -1.327932 0.954566 -0.741048 1.908487 3.506232 -1.706242 1.368413 4.454972 -2.935552 2.412181 5.540367 2.716789 -8.173200 -2.342418 -2.183786 -1.226783 -0.792637 2.012907 -0.896558 -6.689886 1.953811 6.108759 -1.392620 1.574975 0.638944 1.432374 -1.543991 0.718501 0.405377 -1.441524 0.011632 -1.224488 -3.070995 -2.517398 -5.666584 -4.034375 2.054056 -0.972669 3.094027 2.757791 -0.615234 -1.547480 3.678316 1.203396 1.773044 0.311829 1.020662 -4.140024 0.956650 -3.532425 2.621765 -1.667270 -0.341515 1.761701 -3.683046 -0.308772 -1.777030 -1.442299 -2.090117 -0.813931 6.418683 -0.247179 -3.152686 -1.115507 -1.078505 3.669620 1.072593 -0.951896 3.182806 -0.408615 0.909421 0.758099 -5.108940 0.290651 1.573836 -0.294965 0.673067 -2.691015 1.351320 1.061484 0.203580 0.683508 3.302544 4.461481 -1.855568 3.700584 -0.213628 -0.385448 -0.344226 2.972829 -0.233224 -4.909958 -1.934929 -3.086493 -1.499482 -4.572988 6.097980 0.835735 -2.821457 -2.524481 -5.826237 2.208427 0.108170 -0.202196 2.900564 -3.137629 2.353456 -5.070612 -6.406459 -8.468656 -0.933497 -1.763729 0.950362 0.978516 -3.053481 2.783346 3.007240 -1.674178 0.085745 6.634946 -0.866892 1.631643 -4.510843 -7.624880 -7.472463 -1.588153 -1.159756 -1.320361 0.892996 6.725356 3.491657 -1.370295 -6.868960 -1.303973 2.106332 -0.997869 -4.027208 1.352441 2.496178 1.143611 -2.011558 0.468607 0.736428 -2.778441 -10.153883 -0.595879 -5.440818 1.692204 0.159104 0.465773 4.433590 -4.441213 -5.423691 1.067320 2.298829 0.679016 5.468244 5.519925 -0.574889 0.457779 -1.553237 2.800542 -6.060596 1.164928 6.599284 1.679688 1.935140 0.545558 2.001583 0.544006 2.697778 -5.557756 -0.342904 -1.628038 -3.980707 6.120053 2.432669 -0.843512 -4.288207 -2.177552 -2.679449 -2.213466 -0.682841 2.196135 3.582779 2.285338 1.937885 -4.685862 -1.597550 -4.550525 2.730442 3.234457 0.713986 -1.480173 2.000335 -1.772400 -2.384596 -6.300858 2.702347 3.246789 8.881994 -4.003656 -1.478650 -3.168425 6.509586 -4.552816 -5.637408 -4.198472 -8.586398 -2.148559 -3.938013 1.791845 -5.848436 4.283057 3.027734 -0.519589 6.225676 4.501704 2.364009 3.125333 -6.105864 3.242320 -4.673512 -3.108844 1.097363 -2.205281 7.923215 5.476653 -2.014732 -1.034623 0.744646 2.488458 4.109461 0.037310 -0.409028 -2.025090 6.088410 -3.138295 -1.271380 -0.809453 -1.123047 2.596522 1.770962 6.758298 -0.630759 0.914343 6.342225 0.871418 8.963781 1.227240 5.948955 1.893512 0.348214 2.589041 -3.838697 0.275713 -6.545665 2.844103 1.523087 -0.076564 1.170656 -2.746735 3.338932 -3.609431 -0.219858 -10.039160 1.075854 -0.840936 -0.939056 0.074782 -2.210614 0.074392 7.349464 9.148685 2.717871 -0.785841 0.930669 -3.906540 0.723405 -6.203523 -7.403355 -3.956378 3.941505 2.069447 -3.838809 1.413721 5.261842 -4.384596 0.584835 2.366113 -0.987617 -4.262615 -1.066926 -4.180085 -3.477234 1.275985 -1.458398 -0.798369 -1.795716 1.966032 
will 0.470380 -5.284813 -8.040827 -6.965232 5.419039 -0.104044 -5.611374 -0.894259 2.077219 2.318345 2.433147 2.557307 4.972122 3.404312 -3.872412 1.026569 11.428894 -8.868982 2.717901 4.342614 -10.844935 -2.923497 -1.573488 -1.192509 -5.908925 -3.262355 -2.955748 -5.580607 -3.857416 -0.740805 -2.582611 8.922297 -3.153563 1.607357 8.368747 -8.981992 2.850246 3.599835 -7.686543 3.264078 3.790694 2.340527 -4.157696 0.564960 3.892904 -1.653752 -2.445328 4.552217 3.741796 0.220048 0.695296 8.219430 -7.618216 1.947353 -1.679487 -7.174378 -0.824330 3.003646 4.526569 -0.169149 2.822326 -3.668045 -5.329110 4.060668 -8.379045 9.013347 -6.686812 -6.477695 1.882452 1.200252 0.762698 6.373363 3.683671 -7.460292 6.928103 3.744638 -0.887887 1.870883 1.080948 5.259746 2.456780 -3.717719 0.239773 -0.086041 3.817621 -7.101216 13.704125 2.757032 0.975679 -3.037606 4.068907 5.045567 -1.998832 -1.081184 8.478766 -2.375662 7.755290 2.031841 -1.825001 -1.371853 -5.343091 -7.507954 2.629569 5.596745 -3.278747 3.819630 11.354756 -1.577542 -9.258413 -5.212590 1.188700 2.881114 4.724465 -5.560135 -1.792257 6.652001 2.584211 -10.702971 4.393186 6.021521 -4.883802 -1.699083 -3.689418 -6.626015 5.841670 -1.900566 -7.745024 -1.432471 0.568684 -4.573790 10.372995 3.806879 -2.005535 6.418023 -4.917351 0.033880 9.572590 -10.144637 -5.775363 5.569676 1.770227 1.090686 -16.437365 4.693641 -8.301929 0.574924 8.592433 0.233012 5.947366 12.031132 -2.605580 5.533079 6.427696 -5.617434 -2.168436 5.323048 1.069285 -5.497408 3.705912 3.105255 8.717796 5.150823 5.300438 0.823797 -14.308221 -4.742941 4.317088 -7.834786 0.627946 -6.394362 -3.554376 8.913316 -3.717817 -2.500481 0.915521 -6.270925 -0.697462 -0.807624 2.524360 4.960386 -4.364971 -5.006395 -1.485997 4.106394 5.477048 -12.038791 -1.715361 3.229048 -4.841527 -7.276590 0.001014 -0.247476 0.342819 3.055517 1.456311 -0.479838 9.910326 3.914753 5.482794 -5.322229 0.961736 9.357862 5.032318 -3.768134 4.177891 1.038037 6.142718 0.772769 4.241425 0.279107 9.299177 7.639026 -4.424741 -15.745817 -6.393781 -3.893552 3.567179 1.911548 5.778677 7.174473 -0.161256 0.271323 2.124405 0.834863 -1.186277 -1.137644 -1.507585 0.284024 -2.410377 -0.783621 -6.150532 -4.464055 -0.013789 1.695381 -11.322371 1.343980 -2.073725 7.981477 1.903779 -2.396578 5.201074 14.801110 -0.816791 3.818004 0.945015 -5.125985 -5.538501 -5.962384 -2.540170 -5.542944 3.926999 1.121436 -7.833719 -1.971153 -5.908023 -1.640094 -4.361248 -3.658165 4.106428 -5.880198 -2.937349 -7.011465 -1.188713 -0.559818 0.205098 -0.464594 -0.689223 7.698461 -5.582411 -6.601880 0.935741 8.050128 -0.462560 1.245208 -0.563288 0.885473 4.846629 3.166545 1.436314 9.079918 -4.095254 -10.192182 -7.165578 -5.619770 -3.801374 13.034615 -3.741350 1.230921 2.632298 3.318283 5.052546 5.971614 11.461425 -2.625053 -3.121543 0.630065 -6.561799 1.383240 2.411860 -1.805269 
about -1.625538 -1.457464 0.529831 -3.134380 0.348952 0.573912 -4.093938 -0.130186 -0.731590 0.644089 7.431987 -2.421394 -1.897036 0.135007 -4.910569 0.163966 -2.861060 1.195678 -2.934578 5.431573 1.020932 0.849754 -3.152240 -0.829511 2.048862 0.869585 -0.770395 -8.199458 0.822599 0.532262 -0.796150 1.085221 -1.549988 3.860207 2.317698 2.297613 5.640471 0.713911 5.279982 -0.928129 -0.532606 1.923280 -2.016652 -2.290755 -4.336253 1.674767 2.775940 -4.819003 3.124835 -2.580051 2.458263 0.626712 -5.004242 -0.136204 -0.098809 -0.079139 1.535780 -2.283868 -2.233724 -1.356599 -4.035491 4.490288 -0.464272 4.963977 4.354240 -3.674136 0.397551 1.977288 7.198958 0.605292 1.898802 0.669059 1.502730 -4.618080 -0.571641 3.268471 -2.201083 -1.666600 1.286950 -3.602597 2.162858 0.331521 -3.673143 -2.265551 1.982970 2.399866 -4.697374 -1.641638 3.023672 0.045429 3.082677 -2.051380 -2.830291 -0.175777 1.137964 3.071320 2.736857 -1.428280 2.808422 2.910097 -3.037649 -5.155099 -1.387807 -0.329413 -3.067506 0.158251 -2.833894 -3.746551 -2.913796 -0.635495 3.100799 -3.488292 1.939103 -2.579190 -9.615147 -1.388302 3.492681 3.860085 -0.337858 -0.170055 -4.976723 -1.489252 5.824102 -0.346268 -2.764095 4.662055 -0.166952 -3.821859 -1.912800 -4.321450 0.715773 -0.712296 0.347664 -6.174134 -2.946604 5.121103 3.430288 2.275737 3.555890 -0.322968 -2.924498 -1.413744 3.552330 2.353730 -3.869098 2.245357 0.357674 0.539597 -0.985500 1.906115 -4.384126 1.758948 4.372619 2.912994 1.491684 0.125403 -1.098471 -4.573338 0.114576 5.433560 2.233354 -4.029321 -5.010164 -1.817826 -0.825292 -0.895822 0.850382 2.280886 -2.392104 3.280416 0.274413 -3.360425 -0.337237 1.223150 -0.578627 -0.656240 -2.706538 -0.090854 -0.016201 -0.332339 0.535396 5.755493 2.253727 4.245171 -1.404284 3.226436 3.485510 -1.972912 1.214400 -0.665079 -1.905890 -2.653879 1.733944 -0.054643 1.637525 -1.604541 8.980716 0.878748 -1.359650 1.663804 0.930450 -0.156019 -1.271495 1.336076 -2.055117 0.064161 -2.320829 -2.004707 1.998252 -7.064942 0.755416 -3.151285 0.699565 1.065639 4.483595 2.556469 -1.337226 -1.314465 -1.861246 -0.036399 3.472869 -0.731852 0.801899 -1.622200 0.954885 1.051020 4.630458 1.241364 -2.396487 0.264811 3.346498 -6.546503 -4.436941 -0.711568 3.018991 0.190013 -1.474220 1.974601 -2.963711 2.514363 -1.993634 2.171482 -0.089955 2.758749 0.458061 -1.746763 0.860835 -1.598936 7.406589 4.871376 -1.993283 -0.743495 3.724412 -3.364490 -3.759652 -7.557105 -2.425627 8.885550 1.068300 -0.873254 2.606565 2.827663 -0.060172 5.896941 4.240882 -2.980838 -0.867707 4.966087 3.507273 -1.396446 1.187549 2.074286 0.715551 -0.958828 -4.492409 0.894516 2.354665 0.841062 -1.795334 -0.255929 1.413049 5.117395 -4.277848 2.241265 -1.257845 -2.533817 -1.443061 0.094529 -1.425834 3.457269 1.226326 -1.699493 1.302606 1.285263 -7.420852 -3.129248 -0.620211 -3.526915 0.935640 1.356327 
would -0.324826 -1.525353 -4.341608 -4.869972 2.228707 3.729523 -3.404649 -2.709965 6.439099 0.224489 3.179315 6.662797 -0.647473 6.884509 -3.957263 -3.031467 8.089553 -2.610178 2.763508 9.840920 -1.029074 -3.749477 -4.752109 1.049901 -7.868114 -4.633919 -1.408190 -5.331262 -1.935127 0.540237 -6.104504 4.763759 -2.132618 -4.108271 4.721410 -9.625460 3.236032 0.511444 -6.666285 4.995790 3.655423 -0.987899 -4.351460 -7.328707 2.315765 -7.500474 0.822391 6.046192 -2.454242 -4.585445 1.978394 3.826019 -5.560476 -1.580800 0.863706 -2.063405 -5.963235 3.838921 5.323661 3.211365 1.266903 -1.438207 -2.378510 1.377866 -7.275440 2.216407 -7.357794 -1.807626 1.997807 3.242689 -1.035753 4.354012 8.348083 -9.293987 9.808500 -1.379504 -2.738555 2.863674 3.478784 2.096270 3.934603 -7.275784 -1.578363 -2.282876 -0.481410 -7.182188 11.519232 -2.324993 -0.244406 1.052876 -0.126597 -1.492404 -3.346969 -1.610273 10.182660 -2.202663 6.200300 0.346972 -0.856583 -4.322996 -6.837894 -7.214802 2.353840 5.349510 -4.803535 1.016888 15.509406 -2.175800 -8.823899 -12.307951 0.164320 -2.020822 4.479722 -6.622981 2.300981 5.693685 2.738253 -13.507751 1.660143 8.297459 1.652454 1.982206 -6.196404 -8.180072 7.410049 -6.554403 -7.540585 -3.608322 -0.803557 -4.570199 6.713233 2.676191 -5.336158 3.949436 -1.917495 1.572040 7.544453 -12.543913 0.200842 7.997711 3.694967 1.785488 -12.579728 3.280247 -10.995403 6.486217 4.181411 -0.981967 10.841748 7.557059 0.185214 3.257252 5.873885 -3.104367 -6.708022 3.690721 2.905563 -6.079506 3.818285 3.738361 0.513471 0.128282 4.402921 4.590601 -7.208534 -8.581506 2.645137 -6.670067 -0.964525 -8.521353 -3.953399 14.357259 -6.544699 0.883191 1.743302 -7.355142 -1.725843 2.322253 5.076426 6.404667 0.684433 -2.167589 -3.365437 7.081075 5.886238 -7.636759 2.324368 6.248214 -3.235137 -3.348381 5.816899 -5.226389 -2.833848 2.463655 3.610774 -3.112554 5.399764 5.107810 6.677460 -5.109393 -1.987399 9.101194 2.817555 -2.794220 6.254704 0.555367 7.854905 -2.001167 2.284314 2.632295 8.639097 7.582087 -3.205363 -8.303260 -10.919494 1.799958 0.050755 -0.851749 9.232584 -0.595115 2.288623 0.083062 1.571904 0.253316 -2.373733 -0.928061 1.089902 -2.622913 -1.702662 1.019984 -1.403073 -1.753436 1.499981 -4.403291 -7.886102 1.580628 -5.358901 6.503615 2.049370 5.304789 1.874128 13.699250 -0.447856 2.578234 2.805815 -2.431454 -6.476722 -7.634392 -1.214472 -5.481006 2.577381 2.824152 -9.670215 -3.875078 -4.122382 -0.500269 -2.445183 -3.704323 4.986587 -4.268469 -4.831783 -0.429010 2.712960 0.870285 -3.988148 2.903339 -2.523920 4.972195 -0.932281 -6.969568 1.910583 7.710853 -2.483807 -3.295323 -1.137719 3.747361 2.371118 -0.264173 3.157037 12.376102 -1.524253 -10.881408 -7.556761 -9.428219 -7.664534 15.520088 -1.732296 1.634236 1.338195 3.762865 2.420927 7.071580 10.257400 3.829245 3.684187 0.084817 -1.077709 -2.435456 -0.506493 2.941913 
one 2.902456 -0.027546 6.576446 1.307746 0.435461 3.544607 -3.551296 0.699293 -4.837067 -0.646801 6.781949 0.333738 7.122187 -1.540501 -1.794922 -0.712169 -1.802586 1.853308 -6.378294 -1.535321 -0.822590 1.587833 0.227315 -2.653937 3.202499 -3.566950 -2.329746 3.431322 -1.689536 -3.322447 -2.936702 0.768522 -0.510486 -1.299766 -1.033226 -3.964649 2.263849 -2.034789 -0.693446 -4.432715 0.774938 -3.962680 4.544827 -1.623217 -2.806664 -1.847047 2.711801 2.574558 0.020996 -1.067494 0.039381 1.841140 -1.629748 -4.462462 0.739773 1.222403 1.409043 2.188290 0.126290 3.969389 -4.692507 -0.397272 3.549748 1.192273 4.494503 0.483778 -4.571096 -3.444989 1.199723 2.519782 1.049996 -2.264395 0.034758 1.687617 -1.636732 -3.876158 3.286226 1.133705 1.885830 -0.454592 0.786162 1.508881 0.238206 1.956348 1.192173 -0.811858 0.028263 1.258946 1.463677 0.555710 -3.603768 0.610424 -0.865376 3.374431 -1.277468 3.884060 1.700282 1.150324 -4.689594 -1.810704 1.220478 -4.270201 0.114001 1.194569 2.911210 -6.703286 -1.634885 1.926730 0.965492 -4.132970 -2.313719 1.667914 0.990405 0.091324 -1.977394 4.623518 3.943718 2.137572 3.360652 -2.193144 1.497972 -2.200727 2.569482 2.547885 6.882242 1.693445 -1.266478 0.303703 4.090777 4.587171 -3.554536 -1.388159 -1.219651 -2.832942 -1.304460 2.099356 6.731461 0.306128 -0.272595 -2.147685 -0.288054 0.122172 -2.960216 -1.123141 -1.478789 -0.382147 -1.579648 -2.515709 -0.614435 -1.709155 1.086819 0.018729 -2.182405 2.251916 -0.487944 -2.903496 -6.201785 -2.999885 -1.090552 -6.247540 0.370616 5.643927 -1.175161 -3.307424 1.756398 1.588642 -7.127921 0.925791 0.479877 2.509668 -0.911629 -1.559997 1.425844 -0.300682 3.290472 -0.596376 -4.598506 5.304139 -0.239175 -2.071145 -1.963430 1.460098 1.239423 0.629988 -0.709955 1.608458 0.229135 -4.248943 -3.684225 3.024448 -1.116656 2.934685 -2.014111 -1.094417 -1.347176 2.154751 -0.283857 1.857015 0.066560 0.295660 -3.382256 -1.062743 1.274266 -3.912465 -0.032071 -2.794551 3.241078 -2.011171 0.852647 -0.648699 -3.054096 -3.072316 2.479485 6.090903 -0.702552 4.950857 3.925764 -1.620561 0.156373 3.628221 -2.412112 1.691252 -3.374987 1.661212 2.014605 -2.780720 -3.479033 0.707998 -2.152719 -0.371817 3.509012 -1.946954 3.335430 -1.296748 1.142356 -3.128558 4.174442 3.756438 -4.446982 -1.709022 1.389651 -0.278573 -3.281947 2.244858 2.690530 1.177328 1.651545 3.337903 -3.443706 1.893905 0.378149 -5.298762 1.474883 0.101747 2.097880 -2.563944 1.442787 2.687516 -8.135403 1.955601 -1.280756 4.607327 1.581213 3.749997 0.973475 -0.572027 6.640700 -0.846848 -0.997822 -1.212728 0.678256 1.751279 -1.027249 1.519504 -2.577592 2.892313 -0.044030 -0.557596 -6.438319 1.747444 -2.437475 1.390617 1.732404 -1.660515 -6.538129 -3.317936 1.097906 -1.812328 1.489178 3.539859 5.279381 0.051792 -0.559386 -0.871367 2.368770 1.777358 -1.855895 0.392582 2.063803 -1.218764 
no -3.199746 0.188575 6.580950 -1.136075 -1.420539 -0.158101 -2.571716 5.400171 -5.705597 5.520279 1.373859 -5.062544 3.261693 -1.592361 4.464824 -2.593479 -2.381671 3.614572 -1.823900 0.799976 -3.418928 -3.285230 -1.140849 -3.330396 0.418248 -1.802511 0.052551 2.977231 1.231987 3.834564 -3.261580 -1.775664 -2.998534 0.288399 -4.884431 -4.790463 2.771508 3.126292 0.636366 0.678338 1.319331 -3.527167 3.767616 2.165941 1.050760 9.959597 2.425782 -7.261624 -3.396546 -1.449534 -5.377785 -0.576580 0.785986 0.224295 4.481694 1.719447 -3.466544 6.278245 -2.948793 3.361698 -2.744275 -6.179145 -1.678479 -2.577748 0.053501 -1.643110 -2.317665 -1.496907 1.943473 6.450086 3.835734 -2.953235 0.097533 -1.664901 2.610730 -0.623516 -0.961784 -3.178572 5.795879 4.345140 0.040734 0.681504 -3.396751 2.314562 -3.897305 -0.566708 3.129110 -1.000169 -3.529201 -1.108639 4.779003 0.910427 -5.665448 -2.823545 -2.314317 -1.848594 6.593330 -2.947419 -1.909675 -2.468375 3.508457 -3.837603 -2.541906 5.077113 -3.305750 -3.063831 -0.636262 -1.854549 -2.995962 0.943920 -2.714864 -2.425783 2.119583 -8.014702 6.363967 0.425313 6.606500 4.542553 -2.106842 -5.043422 5.321942 -2.392774 2.680763 1.996417 5.380967 5.752855 2.073333 5.628103 -3.002580 1.595786 -2.518774 -4.845425 -4.195435 -2.413994 -1.241397 -1.455509 -0.763015 -7.084047 -4.583784 3.984258 -0.604813 4.688945 2.748287 0.242352 3.189233 -1.674184 -3.630331 0.993708 4.237954 2.862816 2.634002 -2.023151 1.926025 4.873396 -5.786708 -1.994204 0.420841 3.032500 -1.924738 0.076463 -1.832763 2.959523 2.612319 -2.345259 2.905011 0.485412 1.028031 1.644764 -8.774521 1.023824 -2.144870 -2.157175 -2.594644 1.456547 -0.522337 0.567288 -2.510649 1.420871 -2.130733 -2.621503 3.034554 3.150417 1.762318 -5.736594 1.266343 3.740825 2.669684 -1.505317 -8.135220 -1.293441 -1.233736 2.546453 6.014714 1.118300 2.557347 1.759709 0.974018 -0.761591 0.658038 5.805117 -4.426087 2.564942 0.156078 -6.550888 0.807754 -2.644369 -2.832301 7.015099 -0.437804 -2.051506 0.962522 -4.097630 -0.825860 0.447694 -5.543548 12.070359 -1.613266 0.285872 -5.638395 -2.384800 1.191429 -3.635995 -7.137091 4.006422 2.819596 4.568047 1.896874 -7.101470 -2.425553 -2.603690 2.000855 1.897676 1.104059 -1.789113 0.942579 -2.791015 7.660663 -1.086171 1.207455 -1.155696 -2.443620 1.005250 2.282255 3.707136 -4.304788 -2.689366 -2.555921 -0.084534 -3.203833 3.832331 -2.590877 -5.850219 -2.354366 -5.180266 -2.371282 4.259468 2.091838 6.269407 -0.200754 5.967377 -2.586713 5.038015 5.916457 3.032441 -2.726464 1.866675 4.847066 -2.745565 -2.692156 -0.291999 -0.366518 0.656209 -0.298933 2.073418 1.313595 0.931230 -8.090590 0.125165 -0.357989 -1.323782 2.999293 1.720612 -3.480251 -0.982389 -8.133660 -3.770136 0.352288 -2.634877 1.321115 -0.970708 4.402631 -3.420570 -6.315870 -1.050271 -1.267230 1.796201 1.619961 3.622824 -4.082697 -2.344947 
many -2.561898 -0.096700 1.348695 -1.462177 1.335131 -3.793172 -1.512518 2.589454 5.166711 -2.376533 -4.030593 -2.965986 -4.292609 1.560409 -4.021713 -0.427725 1.032695 -2.965801 0.917659 -4.487527 -1.872865 -3.238630 -5.575310 -0.689493 3.992601 2.502661 3.572305 1.682496 -1.222505 7.955580 -1.885497 -4.662595 -4.158644 0.447705 -2.466234 0.695745 7.218108 -4.076922 0.155225 -1.063654 0.867710 0.310066 4.037491 -2.352159 -7.081579 -2.011879 -1.120574 6.677629 -5.545726 0.281552 -2.654389 -2.270658 1.754628 0.465901 1.358619 -0.788099 0.019342 4.585094 -2.367862 2.993238 1.629667 0.612544 -4.114960 4.313375 3.873266 4.238620 3.030835 -1.205720 1.560359 -2.271979 0.910414 -4.241705 -0.265778 -7.436378 6.539620 -3.891101 1.946063 -2.893343 -3.317222 5.996635 2.619365 1.290119 -3.984914 -0.235462 1.756279 1.641056 1.054018 0.432577 -6.302862 2.095894 1.388908 1.826097 -2.418658 1.436226 2.921990 -0.009686 1.182852 1.466884 4.988623 1.654715 3.514951 -1.402468 -0.121369 -0.234907 -7.406924 -1.914563 0.594531 0.536803 -1.519114 -0.572101 2.288874 0.793386 -2.220416 -5.659025 -4.187538 2.714397 0.831071 2.012429 2.540484 0.191916 0.152775 1.908978 0.574730 -0.419015 -1.408197 5.606233 -1.594152 3.049284 -4.029942 -0.576355 -1.432098 -0.143970 2.427900 -5.458123 -0.662973 2.388824 2.182004 3.124421 2.292947 0.086478 0.787841 -3.130646 0.014994 2.107477 4.194624 -4.478396 -1.829002 2.695850 -3.800130 -5.695692 -1.283473 3.014568 7.777333 -4.454383 -1.674988 -4.179228 -3.533101 -5.412641 -2.663779 0.994140 -3.965122 2.430830 0.107643 -3.311441 2.707854 3.508121 1.554927 -3.776479 -0.480867 -3.305054 3.857568 -0.981148 0.448153 -0.619167 0.420406 2.064491 -3.932528 -4.525020 -5.882218 -3.329252 4.593563 1.437973 -1.626038 -4.505888 -2.025068 4.387351 0.632664 -2.655684 3.394904 4.302289 1.379246 5.577941 -0.693084 1.130128 2.462472 4.479918 2.736203 -3.281832 -2.143296 4.351654 -1.273563 -0.767096 -2.828912 9.125074 -6.344510 2.926693 -3.222207 -1.186859 -4.411036 -7.066060 -1.449021 0.408347 0.585022 1.310158 1.272319 0.117604 -2.311466 0.503738 -1.066390 1.060676 3.217879 5.149029 0.809597 2.777537 -0.223556 0.828153 -0.307949 -4.738147 -1.112852 0.110263 -2.598444 -4.271355 6.685372 -0.794751 3.351357 -0.569802 -2.614550 3.459090 4.327695 5.397388 -2.803605 -0.214918 0.654370 1.577433 4.909703 -4.239540 7.487643 4.658774 3.876986 -3.754582 0.089095 -5.879967 3.061747 -2.684350 3.276945 1.089553 -5.276297 7.667928 2.116019 -2.564958 4.159098 -1.723622 -3.755598 7.723754 2.660537 -3.304190 -6.475097 2.480295 3.821074 -0.113911 3.300930 5.879037 -4.669164 -1.443367 -2.409998 0.182102 3.887675 0.707945 5.140327 -2.711498 -1.434668 -1.592958 2.524324 2.400503 0.755913 2.540824 6.493973 -2.594796 8.954475 -5.290491 6.373354 0.936773 -0.218219 0.257794 4.831051 0.325619 -1.359675 -0.547977 -4.337634 0.870594 
be 4.748677 12.260653 7.377529 9.437535 -1.583222 7.198036 8.411721 9.459678 -5.645034 -2.229626 -2.768000 12.712803 3.195895 -5.308253 9.601397 0.870113 -2.556831 -1.712562 -0.201151 -2.260453 2.899812 7.804060 0.678271 5.763474 -9.446040 10.314234 -4.530550 4.137711 -0.942630 -0.698962 -1.259609 1.167277 12.566804 -2.116712 -6.226168 2.270521 5.350121 5.404972 -0.714104 5.334236 -5.786136 -3.716100 1.274909 -2.209558 -1.774425 -3.881231 -4.498556 3.825536 9.606978 9.108628 -0.146869 -2.867413 5.768240 1.884292 1.155991 4.661336 -3.918484 -4.822671 4.408501 1.242672 4.293058 5.263954 4.404932 9.391839 3.312751 1.282157 7.756053 -2.639353 -0.818306 3.841346 -5.781896 -5.312070 4.935110 4.163878 -7.939463 -2.377127 2.921701 -3.492472 0.157547 -3.242851 2.105541 6.521336 -0.682665 -0.255200 -7.478869 8.999561 -6.743438 -2.142769 0.385244 2.182679 2.959954 3.711223 4.416040 7.338057 -2.320571 4.603559 2.219474 1.665288 2.068192 -0.894185 -2.137330 0.080968 2.872416 -2.833256 2.826952 -10.648439 -1.340838 -2.240630 4.798073 6.232558 0.498712 -1.847208 -1.445926 10.385630 5.949000 -5.194803 -4.423534 -4.915956 -6.317738 -0.145014 1.572000 -4.616175 -5.345456 8.159976 0.087494 2.023324 3.077595 7.613732 -0.919807 4.151479 -5.116196 -2.451242 4.179700 -1.303106 -7.019453 3.576241 5.350926 5.285929 -1.643008 -8.252730 -2.855787 5.427736 -2.642355 6.226721 6.024259 -5.159361 -2.681562 3.561980 5.340479 -1.034256 -1.767590 4.878727 3.138575 -6.875657 -12.006318 -4.062733 5.760689 4.334680 -1.601583 0.156104 0.803932 -3.395007 -4.858176 -6.279419 -3.287687 7.078928 -1.812741 -3.118734 -9.708839 2.507085 2.840757 -1.181922 7.594596 12.805401 -0.888842 0.914371 1.865746 2.227071 0.789607 -5.170345 5.159648 3.104506 3.093510 3.813323 -8.432537 7.640080 -5.479517 11.798903 1.429512 3.016228 -6.618460 -0.087540 -3.758986 -1.172435 1.340687 2.379786 -7.826947 -8.631764 -6.522647 -4.204132 -0.831887 -4.600719 -6.309515 -1.234566 -4.974888 -2.030889 -4.617092 2.076705 1.805122 -3.593898 7.901853 -8.045735 6.083216 6.963858 0.784089 -2.463747 -0.975521 -1.964267 -7.851987 3.594470 0.063647 -0.172818 -3.970785 4.934244 9.233221 -3.642653 -1.532365 0.423947 -3.405379 -4.769902 0.792339 1.960145 1.220645 2.895830 1.937562 0.834086 1.218883 1.418472 1.728624 -7.352327 -4.061332 -2.306746 -4.787056 -5.622343 5.296309 -5.510752 5.605159 -0.983454 -4.342205 6.081129 -4.771388 2.640699 -2.763203 5.602994 -5.009176 -0.695062 1.216964 -1.434752 -5.296392 -5.631476 -1.507872 2.175408 8.797916 0.772790 1.454314 -2.947371 -4.617659 0.084013 9.109981 6.138057 3.362826 -0.823565 -7.368816 -3.181366 -4.083123 5.600078 -0.421702 5.700489 12.043160 3.967812 -4.776510 3.978715 -1.065563 -8.187999 7.777127 0.977709 -2.892399 4.895020 -2.021506 0.508363 -1.533826 -15.599713 -17.321098 -3.931544 -4.988667 3.151138 0.913260 0.626483 -6.623035 1.372229 
